FANN_FLO_2.0
num_layers=3
learning_rate=0.700000
connection_rate=1.000000
shortcut_connections=0
learning_momentum=0.000000
training_algorithm=2
train_error_function=1
train_stop_function=0
cascade_output_change_fraction=0.010000
quickprop_decay=-0.000100
quickprop_mu=1.750000
rprop_increase_factor=1.200000
rprop_decrease_factor=0.500000
rprop_delta_min=0.000000
rprop_delta_max=50.000000
rprop_delta_zero=0.500000
cascade_output_stagnation_epochs=12
cascade_candidate_change_fraction=0.010000
cascade_candidate_stagnation_epochs=12
cascade_max_out_epochs=150
cascade_max_cand_epochs=150
cascade_num_candidate_groups=2
bit_fail_limit=3.49999994039535522461e-01
cascade_candidate_limit=1.00000000000000000000e+03
cascade_weight_multiplier=4.00000005960464477539e-01
cascade_activation_functions_count=6
cascade_activation_functions=3 5 7 8 10 11 
cascade_activation_steepnesses_count=4
cascade_activation_steepnesses=2.50000000000000000000e-01 5.00000000000000000000e-01 7.50000000000000000000e-01 1.00000000000000000000e+00 
layer_sizes=161 11 2 
neurons (num_inputs, activation_function, activation_steepness)=(0, 0, 0.00000000000000000000e+00) (0, 0, 0.00000000000000000000e+00) (0, 0, 0.00000000000000000000e+00) (0, 0, 0.00000000000000000000e+00) (0, 0, 0.00000000000000000000e+00) (0, 0, 0.00000000000000000000e+00) (0, 0, 0.00000000000000000000e+00) (0, 0, 0.00000000000000000000e+00) (0, 0, 0.00000000000000000000e+00) (0, 0, 0.00000000000000000000e+00) (0, 0, 0.00000000000000000000e+00) (0, 0, 0.00000000000000000000e+00) (0, 0, 0.00000000000000000000e+00) (0, 0, 0.00000000000000000000e+00) (0, 0, 0.00000000000000000000e+00) (0, 0, 0.00000000000000000000e+00) (0, 0, 0.00000000000000000000e+00) (0, 0, 0.00000000000000000000e+00) (0, 0, 0.00000000000000000000e+00) (0, 0, 0.00000000000000000000e+00) (0, 0, 0.00000000000000000000e+00) (0, 0, 0.00000000000000000000e+00) (0, 0, 0.00000000000000000000e+00) (0, 0, 0.00000000000000000000e+00) (0, 0, 0.00000000000000000000e+00) (0, 0, 0.00000000000000000000e+00) (0, 0, 0.00000000000000000000e+00) (0, 0, 0.00000000000000000000e+00) (0, 0, 0.00000000000000000000e+00) (0, 0, 0.00000000000000000000e+00) (0, 0, 0.00000000000000000000e+00) (0, 0, 0.00000000000000000000e+00) (0, 0, 0.00000000000000000000e+00) (0, 0, 0.00000000000000000000e+00) (0, 0, 0.00000000000000000000e+00) (0, 0, 0.00000000000000000000e+00) (0, 0, 0.00000000000000000000e+00) (0, 0, 0.00000000000000000000e+00) (0, 0, 0.00000000000000000000e+00) (0, 0, 0.00000000000000000000e+00) (0, 0, 0.00000000000000000000e+00) (0, 0, 0.00000000000000000000e+00) (0, 0, 0.00000000000000000000e+00) (0, 0, 0.00000000000000000000e+00) (0, 0, 0.00000000000000000000e+00) (0, 0, 0.00000000000000000000e+00) (0, 0, 0.00000000000000000000e+00) (0, 0, 0.00000000000000000000e+00) (0, 0, 0.00000000000000000000e+00) (0, 0, 0.00000000000000000000e+00) (0, 0, 0.00000000000000000000e+00) (0, 0, 0.00000000000000000000e+00) (0, 0, 0.00000000000000000000e+00) (0, 0, 0.00000000000000000000e+00) (0, 0, 0.00000000000000000000e+00) (0, 0, 0.00000000000000000000e+00) (0, 0, 0.00000000000000000000e+00) (0, 0, 0.00000000000000000000e+00) (0, 0, 0.00000000000000000000e+00) (0, 0, 0.00000000000000000000e+00) (0, 0, 0.00000000000000000000e+00) (0, 0, 0.00000000000000000000e+00) (0, 0, 0.00000000000000000000e+00) (0, 0, 0.00000000000000000000e+00) (0, 0, 0.00000000000000000000e+00) (0, 0, 0.00000000000000000000e+00) (0, 0, 0.00000000000000000000e+00) (0, 0, 0.00000000000000000000e+00) (0, 0, 0.00000000000000000000e+00) (0, 0, 0.00000000000000000000e+00) (0, 0, 0.00000000000000000000e+00) (0, 0, 0.00000000000000000000e+00) (0, 0, 0.00000000000000000000e+00) (0, 0, 0.00000000000000000000e+00) (0, 0, 0.00000000000000000000e+00) (0, 0, 0.00000000000000000000e+00) (0, 0, 0.00000000000000000000e+00) (0, 0, 0.00000000000000000000e+00) (0, 0, 0.00000000000000000000e+00) (0, 0, 0.00000000000000000000e+00) (0, 0, 0.00000000000000000000e+00) (0, 0, 0.00000000000000000000e+00) (0, 0, 0.00000000000000000000e+00) (0, 0, 0.00000000000000000000e+00) (0, 0, 0.00000000000000000000e+00) (0, 0, 0.00000000000000000000e+00) (0, 0, 0.00000000000000000000e+00) (0, 0, 0.00000000000000000000e+00) (0, 0, 0.00000000000000000000e+00) (0, 0, 0.00000000000000000000e+00) (0, 0, 0.00000000000000000000e+00) (0, 0, 0.00000000000000000000e+00) (0, 0, 0.00000000000000000000e+00) (0, 0, 0.00000000000000000000e+00) (0, 0, 0.00000000000000000000e+00) (0, 0, 0.00000000000000000000e+00) (0, 0, 0.00000000000000000000e+00) (0, 0, 0.00000000000000000000e+00) (0, 0, 0.00000000000000000000e+00) (0, 0, 0.00000000000000000000e+00) (0, 0, 0.00000000000000000000e+00) (0, 0, 0.00000000000000000000e+00) (0, 0, 0.00000000000000000000e+00) (0, 0, 0.00000000000000000000e+00) (0, 0, 0.00000000000000000000e+00) (0, 0, 0.00000000000000000000e+00) (0, 0, 0.00000000000000000000e+00) (0, 0, 0.00000000000000000000e+00) (0, 0, 0.00000000000000000000e+00) (0, 0, 0.00000000000000000000e+00) (0, 0, 0.00000000000000000000e+00) (0, 0, 0.00000000000000000000e+00) (0, 0, 0.00000000000000000000e+00) (0, 0, 0.00000000000000000000e+00) (0, 0, 0.00000000000000000000e+00) (0, 0, 0.00000000000000000000e+00) (0, 0, 0.00000000000000000000e+00) (0, 0, 0.00000000000000000000e+00) (0, 0, 0.00000000000000000000e+00) (0, 0, 0.00000000000000000000e+00) (0, 0, 0.00000000000000000000e+00) (0, 0, 0.00000000000000000000e+00) (0, 0, 0.00000000000000000000e+00) (0, 0, 0.00000000000000000000e+00) (0, 0, 0.00000000000000000000e+00) (0, 0, 0.00000000000000000000e+00) (0, 0, 0.00000000000000000000e+00) (0, 0, 0.00000000000000000000e+00) (0, 0, 0.00000000000000000000e+00) (0, 0, 0.00000000000000000000e+00) (0, 0, 0.00000000000000000000e+00) (0, 0, 0.00000000000000000000e+00) (0, 0, 0.00000000000000000000e+00) (0, 0, 0.00000000000000000000e+00) (0, 0, 0.00000000000000000000e+00) (0, 0, 0.00000000000000000000e+00) (0, 0, 0.00000000000000000000e+00) (0, 0, 0.00000000000000000000e+00) (0, 0, 0.00000000000000000000e+00) (0, 0, 0.00000000000000000000e+00) (0, 0, 0.00000000000000000000e+00) (0, 0, 0.00000000000000000000e+00) (0, 0, 0.00000000000000000000e+00) (0, 0, 0.00000000000000000000e+00) (0, 0, 0.00000000000000000000e+00) (0, 0, 0.00000000000000000000e+00) (0, 0, 0.00000000000000000000e+00) (0, 0, 0.00000000000000000000e+00) (0, 0, 0.00000000000000000000e+00) (0, 0, 0.00000000000000000000e+00) (0, 0, 0.00000000000000000000e+00) (0, 0, 0.00000000000000000000e+00) (0, 0, 0.00000000000000000000e+00) (0, 0, 0.00000000000000000000e+00) (0, 0, 0.00000000000000000000e+00) (0, 0, 0.00000000000000000000e+00) (0, 0, 0.00000000000000000000e+00) (0, 0, 0.00000000000000000000e+00) (0, 0, 0.00000000000000000000e+00) (0, 0, 0.00000000000000000000e+00) (0, 0, 0.00000000000000000000e+00) (161, 5, 5.00000000000000000000e-01) (161, 5, 5.00000000000000000000e-01) (161, 5, 5.00000000000000000000e-01) (161, 5, 5.00000000000000000000e-01) (161, 5, 5.00000000000000000000e-01) (161, 5, 5.00000000000000000000e-01) (161, 5, 5.00000000000000000000e-01) (161, 5, 5.00000000000000000000e-01) (161, 5, 5.00000000000000000000e-01) (161, 5, 5.00000000000000000000e-01) (0, 5, 0.00000000000000000000e+00) (11, 5, 5.00000000000000000000e-01) (0, 5, 0.00000000000000000000e+00) 
connections (connected_to_neuron, weight)=(0, -5.88178634643554687500e-03) (1, -2.17871382832527160645e-01) (2, -1.85681451112031936646e-02) (3, 2.30713114142417907715e-01) (4, -8.86279866099357604980e-02) (5, -2.70484417676925659180e-01) (6, -2.41371899843215942383e-01) (7, 1.83035746216773986816e-01) (8, 9.48984101414680480957e-02) (9, -3.85422967374324798584e-02) (10, -2.47605085372924804688e-01) (11, -1.11919693648815155029e-01) (12, -1.48157358169555664062e-01) (13, -2.30429023504257202148e-01) (14, 2.56062120199203491211e-01) (15, -1.87071099877357482910e-01) (16, -4.33067828416824340820e-02) (17, 1.87009833753108978271e-02) (18, 9.86096784472465515137e-02) (19, -2.70871907472610473633e-01) (20, 1.06607526540756225586e-01) (21, -1.63350239396095275879e-01) (22, -1.59417182207107543945e-01) (23, 2.34443157911300659180e-01) (24, 4.22977693378925323486e-02) (25, 2.61821746826171875000e-01) (26, 3.17846238613128662109e-02) (27, 2.22632825374603271484e-01) (28, -8.72293487191200256348e-03) (29, 1.68781131505966186523e-01) (30, -2.18500062823295593262e-01) (31, -8.68839249014854431152e-02) (32, 4.24056611955165863037e-02) (33, 2.15994313359260559082e-01) (34, -1.36954128742218017578e-01) (35, 1.06500582769513130188e-02) (36, -1.35273396968841552734e-01) (37, 2.47015714645385742188e-01) (38, -2.43969887495040893555e-01) (39, -1.40374988317489624023e-01) (40, -5.77262938022613525391e-02) (41, 4.27243337035179138184e-02) (42, -2.23198719322681427002e-02) (43, -1.05883657932281494141e-01) (44, 1.75616949796676635742e-01) (45, 1.48325830698013305664e-01) (46, 3.80287319421768188477e-03) (47, 2.32310160994529724121e-01) (48, -2.71452128887176513672e-01) (49, -2.02849164605140686035e-01) (50, 3.83505858480930328369e-02) (51, 2.36018732190132141113e-01) (52, -9.39201936125755310059e-02) (53, -2.06483006477355957031e-01) (54, 1.89678579568862915039e-01) (55, -1.51622429490089416504e-01) (56, -5.31653724610805511475e-02) (57, -2.17015713453292846680e-01) (58, -5.20773008465766906738e-02) (59, 2.18895003199577331543e-01) (60, -1.29017889499664306641e-01) (61, -1.55993759632110595703e-01) (62, 2.04290285706520080566e-01) (63, -1.86612233519554138184e-01) (64, -2.20782756805419921875e-01) (65, -2.13447153568267822266e-01) (66, -1.02859742939472198486e-01) (67, 8.85022580623626708984e-02) (68, -2.47214764356613159180e-01) (69, 1.20816484093666076660e-01) (70, -1.51872724294662475586e-01) (71, -2.04941049218177795410e-01) (72, -1.79262563586235046387e-01) (73, -1.01913399994373321533e-01) (74, -8.08498859405517578125e-02) (75, -8.44289213418960571289e-02) (76, 1.60996034741401672363e-01) (77, -1.01383412256836891174e-02) (78, 9.15763527154922485352e-02) (79, -1.91239386796951293945e-01) (80, 5.47674261033535003662e-02) (81, -2.22722738981246948242e-02) (82, -5.92004656791687011719e-02) (83, 2.13909730315208435059e-01) (84, -1.14171676337718963623e-01) (85, 2.25953847169876098633e-01) (86, -2.18496009707450866699e-01) (87, -2.67337054014205932617e-01) (88, -2.71845191717147827148e-01) (89, -1.55989706516265869141e-01) (90, 1.05680175125598907471e-01) (91, -1.28583863377571105957e-01) (92, -6.74250572919845581055e-02) (93, -2.05718383193016052246e-01) (94, -2.42916882038116455078e-01) (95, -1.88207820057868957520e-01) (96, 2.53928769379854202271e-02) (97, -7.43206292390823364258e-02) (98, -4.20099534094333648682e-02) (99, 2.31240630149841308594e-01) (100, -1.91159829497337341309e-01) (101, -7.92990773916244506836e-02) (102, -2.54483729600906372070e-01) (103, -9.81431901454925537109e-02) (104, -2.66628891229629516602e-01) (105, -6.30543902516365051270e-02) (106, 4.74027059972286224365e-02) (107, 1.66646346449851989746e-01) (108, -1.35412618517875671387e-01) (109, -1.70915767550468444824e-01) (110, 2.47686192393302917480e-01) (111, -1.80645182728767395020e-01) (112, 9.36747714877128601074e-02) (113, -2.69101083278656005859e-01) (114, -2.47518762946128845215e-01) (115, -1.20496913790702819824e-01) (116, 1.38089537620544433594e-01) (117, 1.59326955676078796387e-01) (118, 2.37507760524749755859e-01) (119, -1.23496502637863159180e-01) (120, -7.74460583925247192383e-02) (121, 5.19775077700614929199e-02) (122, -2.21055485308170318604e-02) (123, 1.08191393315792083740e-01) (124, -1.05940081179141998291e-01) (125, 2.02623695135116577148e-01) (126, -1.60799726843833923340e-01) (127, -1.80547207593917846680e-01) (128, 6.29265829920768737793e-02) (129, 6.94695189595222473145e-02) (130, -5.32863959670066833496e-02) (131, -2.28233247995376586914e-01) (132, 2.57816553115844726562e-01) (133, 1.40768125653266906738e-01) (134, 9.89652797579765319824e-02) (135, 2.63466894626617431641e-01) (136, -1.60765171051025390625e-01) (137, 6.55846744775772094727e-02) (138, -4.60369847714900970459e-02) (139, -2.23898574709892272949e-01) (140, -1.90747499465942382812e-01) (141, -2.36829727888107299805e-01) (142, 1.29755511879920959473e-01) (143, 1.55989781022071838379e-01) (144, -2.33651563525199890137e-01) (145, 2.45558410882949829102e-01) (146, -1.03848744183778762817e-02) (147, -8.53028893470764160156e-02) (148, 1.24102048575878143311e-01) (149, 2.64496564865112304688e-01) (150, -1.36520192027091979980e-01) (151, -2.34127327799797058105e-01) (152, -1.88787683844566345215e-01) (153, -1.95637233555316925049e-02) (154, -2.06719234585762023926e-01) (155, -2.22448542714118957520e-01) (156, 2.30860754847526550293e-01) (157, 2.57822751998901367188e-01) (158, -1.30716547369956970215e-01) (159, -1.59275174140930175781e-01) (160, -1.11186638474464416504e-01) (0, 8.37519913911819458008e-02) (1, -5.08827745914459228516e-01) (2, 3.81258130073547363281e-02) (3, 7.61960804462432861328e-01) (4, -4.90645766258239746094e-01) (5, -5.45068383216857910156e-01) (6, -1.07521630823612213135e-01) (7, 1.58313661813735961914e-01) (8, 8.93559902906417846680e-02) (9, -1.02998435497283935547e-01) (10, -6.28945767879486083984e-01) (11, -6.41072213649749755859e-01) (12, -5.22231578826904296875e-01) (13, -5.53739249706268310547e-01) (14, 5.44669553637504577637e-02) (15, -5.57456493377685546875e-01) (16, 3.91272269189357757568e-02) (17, -5.62204830348491668701e-02) (18, 8.69963943958282470703e-01) (19, -5.43037295341491699219e-01) (20, 1.77202284336090087891e-01) (21, -4.75985884666442871094e-01) (22, -6.59545719623565673828e-01) (23, 7.32629537582397460938e-01) (24, -4.45481874048709869385e-02) (25, 7.74386644363403320312e-01) (26, 5.78530691564083099365e-02) (27, 7.50715255737304687500e-01) (28, 9.77253168821334838867e-02) (29, 7.95710980892181396484e-01) (30, -4.72293913364410400391e-01) (31, -4.84400451183319091797e-01) (32, -6.54629915952682495117e-02) (33, 8.49933624267578125000e-01) (34, -6.40663564205169677734e-01) (35, -9.68609377741813659668e-02) (36, -6.13358676433563232422e-01) (37, 8.98688971996307373047e-01) (38, -5.00708520412445068359e-01) (39, -6.24002695083618164062e-01) (40, 8.40964689850807189941e-02) (41, -6.86499522998929023743e-03) (42, -3.99494282901287078857e-02) (43, -5.38135111331939697266e-01) (44, 1.10893286764621734619e-01) (45, 8.48337590694427490234e-01) (46, 2.71976310759782791138e-02) (47, 7.71590828895568847656e-01) (48, -4.85354661941528320312e-01) (49, -7.48687162995338439941e-02) (50, 6.95774033665657043457e-02) (51, 1.69604942202568054199e-01) (52, -4.88082140684127807617e-01) (53, -4.83338445425033569336e-01) (54, 8.99321019649505615234e-01) (55, -6.32630288600921630859e-01) (56, -6.12980388104915618896e-02) (57, -1.17192439734935760498e-01) (58, -4.08912338316440582275e-02) (59, 7.54651248455047607422e-01) (60, -6.42810642719268798828e-01) (61, -6.06555223464965820312e-01) (62, 7.36128568649291992188e-01) (63, -6.08273625373840332031e-01) (64, -4.74845588207244873047e-01) (65, -2.19653785228729248047e-01) (66, -3.92568595707416534424e-02) (67, -5.64488321542739868164e-02) (68, -6.42294049263000488281e-01) (69, 3.54557074606418609619e-02) (70, -5.80451548099517822266e-01) (71, -2.55092382431030273438e-01) (72, -6.31234228610992431641e-01) (73, 4.54767458140850067139e-02) (74, 2.87928339093923568726e-02) (75, -5.16994655132293701172e-01) (76, 1.07516400516033172607e-01) (77, 6.49566501379013061523e-02) (78, -6.71622203662991523743e-03) (79, -6.03134334087371826172e-01) (80, 5.94903491437435150146e-02) (81, 7.18273594975471496582e-02) (82, -7.71950185298919677734e-02) (83, 8.55509936809539794922e-01) (84, -5.04881143569946289062e-01) (85, 7.18560907989740371704e-03) (86, -4.95344340801239013672e-01) (87, -4.66179192066192626953e-01) (88, -5.09765744209289550781e-01) (89, -6.29605650901794433594e-01) (90, -5.57336583733558654785e-02) (91, -4.86698657274246215820e-01) (92, -4.40540350973606109619e-03) (93, -6.11847341060638427734e-01) (94, -6.29094541072845458984e-01) (95, -5.79250991344451904297e-01) (96, -2.85088480450212955475e-03) (97, -2.47368961572647094727e-03) (98, 2.35479976981878280640e-02) (99, 8.38956773281097412109e-01) (100, -5.29179215431213378906e-01) (101, -6.50273621082305908203e-01) (102, -5.37464737892150878906e-01) (103, -4.94535744190216064453e-01) (104, -4.98166978359222412109e-01) (105, -4.27941940724849700928e-02) (106, 1.35951787233352661133e-02) (107, 7.68155038356781005859e-01) (108, -6.30455434322357177734e-01) (109, -5.43402671813964843750e-01) (110, 8.30898404121398925781e-01) (111, -4.70965087413787841797e-01) (112, 9.32332419324666261673e-04) (113, -1.20663166046142578125e-01) (114, -1.30573868751525878906e-01) (115, -6.03948771953582763672e-01) (116, 1.43675088882446289062e-01) (117, 9.37658324837684631348e-02) (118, 7.79851436614990234375e-01) (119, -1.54019176959991455078e-01) (120, -5.26873648166656494141e-01) (121, 8.87871161103248596191e-02) (122, -1.86975318938493728638e-02) (123, 5.98947964608669281006e-02) (124, -5.14094054698944091797e-01) (125, 8.42939555644989013672e-01) (126, -5.44652283191680908203e-01) (127, -6.16944909095764160156e-01) (128, -7.11282119154930114746e-02) (129, -5.52265755832195281982e-02) (130, 6.30356967449188232422e-02) (131, -5.00307440757751464844e-01) (132, 7.85231411457061767578e-01) (133, 8.91124084591865539551e-02) (134, 8.55136275291442871094e-01) (135, 7.52942204475402832031e-01) (136, -5.03963410854339599609e-01) (137, -4.94925156235694885254e-02) (138, -2.19806618988513946533e-02) (139, -4.68541145324707031250e-01) (140, -4.86265271902084350586e-01) (141, -4.68554079532623291016e-01) (142, 1.83283090591430664062e-01) (143, 7.98768758773803710938e-01) (144, -5.26444733142852783203e-01) (145, 1.21101506054401397705e-01) (146, 5.06142415106296539307e-02) (147, -5.73803424835205078125e-01) (148, 5.24759851396083831787e-02) (149, 2.93972846120595932007e-02) (150, -2.61944979429244995117e-01) (151, -9.65885296463966369629e-02) (152, -5.64023256301879882812e-01) (153, 7.97938033938407897949e-02) (154, -2.61989921331405639648e-01) (155, -6.12239599227905273438e-01) (156, 7.31699526309967041016e-01) (157, 8.40232074260711669922e-01) (158, -5.63306748867034912109e-01) (159, -6.23530387878417968750e-01) (160, -8.93610641360282897949e-02) (0, -2.77634356170892715454e-02) (1, 7.26141631603240966797e-01) (2, -5.95811307430267333984e-02) (3, -4.95562583208084106445e-01) (4, 8.63053917884826660156e-01) (5, 7.93361067771911621094e-01) (6, 1.40834346413612365723e-01) (7, -6.63910388946533203125e-01) (8, 5.97863346338272094727e-02) (9, -4.84745809808373451233e-03) (10, 8.99803817272186279297e-01) (11, 8.75333964824676513672e-01) (12, 8.40039312839508056641e-01) (13, 7.80348598957061767578e-01) (14, -1.14142470061779022217e-01) (15, 7.64487206935882568359e-01) (16, -9.54016745090484619141e-02) (17, 5.42037710547447204590e-02) (18, -5.92434644699096679688e-01) (19, 7.26923525333404541016e-01) (20, -1.41714233905076980591e-02) (21, 7.57851004600524902344e-01) (22, 8.28777909278869628906e-01) (23, -5.87672889232635498047e-01) (24, -5.95903433859348297119e-02) (25, -5.01685619354248046875e-01) (26, -4.27331291139125823975e-02) (27, -5.03459990024566650391e-01) (28, -3.32369431853294372559e-02) (29, -5.31849980354309082031e-01) (30, 8.54053139686584472656e-01) (31, 8.57223629951477050781e-01) (32, 4.19453606009483337402e-02) (33, -4.89629715681076049805e-01) (34, 8.27538728713989257812e-01) (35, -9.85932722687721252441e-02) (36, 7.69609093666076660156e-01) (37, -6.24333500862121582031e-01) (38, 8.06966602802276611328e-01) (39, 7.29395449161529541016e-01) (40, 7.11102858185768127441e-02) (41, -1.40362992882728576660e-01) (42, 3.38679254055023193359e-02) (43, 8.11149597167968750000e-01) (44, -5.33430635929107666016e-01) (45, -6.01053237915039062500e-01) (46, -6.44275173544883728027e-02) (47, -5.28832316398620605469e-01) (48, 7.71665751934051513672e-01) (49, 2.12367549538612365723e-02) (50, 1.13313971087336540222e-02) (51, -6.22991085052490234375e-01) (52, 7.70482838153839111328e-01) (53, 7.74522840976715087891e-01) (54, -5.44786214828491210938e-01) (55, 8.10892522335052490234e-01) (56, -7.95090198516845703125e-02) (57, 2.13767960667610168457e-02) (58, -7.93272629380226135254e-02) (59, -5.78623712062835693359e-01) (60, 8.65023612976074218750e-01) (61, 9.09139394760131835938e-01) (62, -6.39624059200286865234e-01) (63, 8.06968927383422851562e-01) (64, 8.85387420654296875000e-01) (65, 1.44173324108123779297e-01) (66, 4.11067493259906768799e-02) (67, -8.14514532685279846191e-02) (68, 8.95336627960205078125e-01) (69, -6.01614773273468017578e-01) (70, 7.47943997383117675781e-01) (71, 1.56827837228775024414e-01) (72, 8.52809369564056396484e-01) (73, 6.35879114270210266113e-02) (74, -9.32649821043014526367e-02) (75, 7.85256445407867431641e-01) (76, -6.03051841259002685547e-01) (77, -2.32789758592844009399e-02) (78, -1.99538439512252807617e-01) (79, 8.34491610527038574219e-01) (80, 9.29691866040229797363e-02) (81, 1.54092963784933090210e-02) (82, -4.44620363414287567139e-02) (83, -6.20649695396423339844e-01) (84, 7.24345684051513671875e-01) (85, -5.85631966590881347656e-01) (86, 8.56120526790618896484e-01) (87, 7.44836688041687011719e-01) (88, 8.11241626739501953125e-01) (89, 9.11206841468811035156e-01) (90, -3.71925495564937591553e-02) (91, 7.58041262626647949219e-01) (92, 8.38982537388801574707e-02) (93, 8.58344316482543945312e-01) (94, 8.46786201000213623047e-01) (95, 8.69285702705383300781e-01) (96, -2.43112035095691680908e-02) (97, -8.12860652804374694824e-02) (98, 3.51967290043830871582e-02) (99, -6.13076269626617431641e-01) (100, 8.86569380760192871094e-01) (101, 9.17554259300231933594e-01) (102, 7.19248414039611816406e-01) (103, 8.21154832839965820312e-01) (104, 9.15555655956268310547e-01) (105, -9.22405868768692016602e-02) (106, 3.55498045682907104492e-02) (107, -6.05720162391662597656e-01) (108, 7.40734279155731201172e-01) (109, 8.92265200614929199219e-01) (110, -4.89452540874481201172e-01) (111, 7.33703494071960449219e-01) (112, 2.38640382885932922363e-02) (113, 1.44184365868568420410e-01) (114, 6.93124160170555114746e-02) (115, 8.48209679126739501953e-01) (116, -1.94860249757766723633e-01) (117, -1.20813762769103050232e-02) (118, -5.09279370307922363281e-01) (119, 1.17447771131992340088e-01) (120, 9.09810900688171386719e-01) (121, -1.33151188492774963379e-01) (122, 1.42466332763433456421e-02) (123, -4.90392565727233886719e-01) (124, 7.28809475898742675781e-01) (125, -5.88655352592468261719e-01) (126, 8.44770848751068115234e-01) (127, 8.04498255252838134766e-01) (128, 8.13048928976058959961e-02) (129, -3.82563807070255279541e-02) (130, -6.45405948162078857422e-02) (131, 8.67874324321746826172e-01) (132, -5.70390343666076660156e-01) (133, -7.05853700637817382812e-02) (134, -6.13296568393707275391e-01) (135, -5.73058664798736572266e-01) (136, 9.00497019290924072266e-01) (137, -1.11869029700756072998e-01) (138, 1.85630936175584793091e-02) (139, 7.23007321357727050781e-01) (140, 9.14809703826904296875e-01) (141, 8.47625792026519775391e-01) (142, -1.90422713756561279297e-01) (143, -5.45427978038787841797e-01) (144, 7.83205270767211914062e-01) (145, -5.84907412528991699219e-01) (146, -1.00623764097690582275e-01) (147, 7.99030482769012451172e-01) (148, -5.86303353309631347656e-01) (149, -6.58843874931335449219e-01) (150, 1.98254317045211791992e-01) (151, 7.97662213444709777832e-02) (152, 7.95722961425781250000e-01) (153, -6.53067529201507568359e-02) (154, 5.52514232695102691650e-02) (155, 8.06308388710021972656e-01) (156, -6.50345802307128906250e-01) (157, -4.92684334516525268555e-01) (158, 8.92582654953002929688e-01) (159, 9.15060818195343017578e-01) (160, 7.79554396867752075195e-02) (0, 1.34344035759568214417e-02) (1, -5.19390583038330078125e-01) (2, 6.48379251360893249512e-02) (3, 7.71758496761322021484e-01) (4, -4.66809421777725219727e-01) (5, -6.08220756053924560547e-01) (6, -2.26964950561523437500e-01) (7, 7.39836812019348144531e-01) (8, -8.93664136528968811035e-02) (9, -7.34017863869667053223e-02) (10, -6.47679209709167480469e-01) (11, -5.25842308998107910156e-01) (12, -6.05024099349975585938e-01) (13, -5.27229428291320800781e-01) (14, -4.45216409862041473389e-02) (15, -5.24053812026977539062e-01) (16, 8.90837907791137695312e-02) (17, -2.81694401055574417114e-02) (18, 7.39622294902801513672e-01) (19, -4.69760090112686157227e-01) (20, 4.02623601257801055908e-02) (21, -5.73318123817443847656e-01) (22, -5.92261075973510742188e-01) (23, 7.32006132602691650391e-01) (24, 3.92061322927474975586e-02) (25, 8.79925072193145751953e-01) (26, -8.46785455942153930664e-02) (27, 8.30623507499694824219e-01) (28, 3.60597670078277587891e-02) (29, 7.44374930858612060547e-01) (30, -4.84127670526504516602e-01) (31, -6.16383552551269531250e-01) (32, 7.26380720734596252441e-02) (33, 8.64811956882476806641e-01) (34, -5.62849044799804687500e-01) (35, 4.32668589055538177490e-02) (36, -6.61632776260375976562e-01) (37, 8.57060194015502929688e-01) (38, -4.72558498382568359375e-01) (39, -6.50999188423156738281e-01) (40, 7.94270634651184082031e-02) (41, -1.84255111962556838989e-02) (42, 4.09213192760944366455e-02) (43, -6.25597059726715087891e-01) (44, 8.68390023708343505859e-01) (45, 8.78154635429382324219e-01) (46, 1.46894365549087524414e-01) (47, 8.57473850250244140625e-01) (48, -6.20123922824859619141e-01) (49, -2.59269684553146362305e-01) (50, 2.13748924434185028076e-02) (51, 8.39450418949127197266e-01) (52, -5.69815218448638916016e-01) (53, -6.56893551349639892578e-01) (54, 8.53232562541961669922e-01) (55, -6.30609095096588134766e-01) (56, 7.06852376461029052734e-02) (57, -9.84498336911201477051e-02) (58, 3.36755253374576568604e-02) (59, 8.24968993663787841797e-01) (60, -4.75404173135757446289e-01) (61, -5.36459505558013916016e-01) (62, 8.74463140964508056641e-01) (63, -5.02766072750091552734e-01) (64, -5.89871466159820556641e-01) (65, -2.03504636883735656738e-01) (66, 2.08254028111696243286e-02) (67, -1.97487883269786834717e-02) (68, -4.67773675918579101562e-01) (69, 8.46361219882965087891e-01) (70, -5.70747971534729003906e-01) (71, -8.52413699030876159668e-02) (72, -5.26222705841064453125e-01) (73, -6.39488995075225830078e-02) (74, -9.61808338761329650879e-02) (75, -5.76056599617004394531e-01) (76, -2.12133931927382946014e-03) (77, 7.14768394827842712402e-02) (78, -6.13925419747829437256e-03) (79, -6.10149502754211425781e-01) (80, -9.65807288885116577148e-02) (81, 5.04458770155906677246e-02) (82, 4.85150665044784545898e-02) (83, 8.17705750465393066406e-01) (84, -4.92455065250396728516e-01) (85, 8.30187141895294189453e-01) (86, -5.31127333641052246094e-01) (87, -5.21769821643829345703e-01) (88, -5.89591860771179199219e-01) (89, -5.83459138870239257812e-01) (90, -3.75770851969718933105e-02) (91, -5.99118292331695556641e-01) (92, -8.81631821393966674805e-02) (93, -6.58785641193389892578e-01) (94, -6.36006653308868408203e-01) (95, -5.78034639358520507812e-01) (96, -3.36400568485260009766e-02) (97, 3.62495258450508117676e-02) (98, 5.41016422212123870850e-02) (99, 7.82688021659851074219e-01) (100, -5.73051393032073974609e-01) (101, -6.02653682231903076172e-01) (102, -6.23882591724395751953e-01) (103, -6.33396327495574951172e-01) (104, -5.52609920501708984375e-01) (105, -5.41857108473777770996e-02) (106, 8.30987654626369476318e-03) (107, 8.41466128826141357422e-01) (108, -6.06154382228851318359e-01) (109, -5.14504253864288330078e-01) (110, 8.97194325923919677734e-01) (111, -6.02735102176666259766e-01) (112, 1.58120002597570419312e-02) (113, -1.06847561895847320557e-01) (114, -1.00148119032382965088e-01) (115, -5.76643049716949462891e-01) (116, 3.79448272287845611572e-02) (117, 4.78364676237106323242e-02) (118, 7.51566588878631591797e-01) (119, -1.18598528206348419189e-01) (120, -4.86084371805191040039e-01) (121, 4.89852689206600189209e-02) (122, -1.03059269487857818604e-01) (123, 1.79534494876861572266e-01) (124, -5.74590146541595458984e-01) (125, 7.59028375148773193359e-01) (126, -5.86404502391815185547e-01) (127, -5.08230209350585937500e-01) (128, -9.45065096020698547363e-02) (129, -6.64251148700714111328e-02) (130, -1.06327995657920837402e-01) (131, -5.67557871341705322266e-01) (132, 8.29015552997589111328e-01) (133, 1.45683586597442626953e-02) (134, 8.49025189876556396484e-01) (135, 7.42283344268798828125e-01) (136, -5.41964113712310791016e-01) (137, -6.08888752758502960205e-02) (138, 3.33088226616382598877e-02) (139, -4.82240825891494750977e-01) (140, -6.61400496959686279297e-01) (141, -5.39605975151062011719e-01) (142, 1.68362315744161605835e-02) (143, 8.38513255119323730469e-01) (144, -5.83680987358093261719e-01) (145, 7.27627873420715332031e-01) (146, -7.89060816168785095215e-02) (147, -5.15792906284332275391e-01) (148, 9.46829840540885925293e-02) (149, 3.07708084583282470703e-02) (150, -1.68513700366020202637e-01) (151, -1.76200449466705322266e-01) (152, -5.38815736770629882812e-01) (153, 6.99819326400756835938e-02) (154, -1.84570267796516418457e-01) (155, -6.47528111934661865234e-01) (156, 8.64220559597015380859e-01) (157, 8.75899434089660644531e-01) (158, -4.89880591630935668945e-01) (159, -5.14387667179107666016e-01) (160, -2.57529556751251220703e-01) (0, 9.81087014079093933105e-02) (1, -6.16067826747894287109e-01) (2, 1.60345509648323059082e-02) (3, 7.80439376831054687500e-01) (4, -4.85266596078872680664e-01) (5, -5.25783836841583251953e-01) (6, -7.66435191035270690918e-02) (7, 7.51938879489898681641e-01) (8, -1.26046556979417800903e-02) (9, 2.16572210192680358887e-02) (10, -6.27685546875000000000e-01) (11, -6.52210593223571777344e-01) (12, -6.49332284927368164062e-01) (13, -5.07396340370178222656e-01) (14, 3.78360711038112640381e-02) (15, -6.39928400516510009766e-01) (16, 6.80053308606147766113e-02) (17, -1.02159991860389709473e-01) (18, 8.50951969623565673828e-01) (19, -6.55005872249603271484e-01) (20, 8.21797102689743041992e-02) (21, -6.46577715873718261719e-01) (22, -5.27943909168243408203e-01) (23, 7.63623654842376708984e-01) (24, -2.49776523560285568237e-03) (25, 8.74507427215576171875e-01) (26, 4.32875119149684906006e-02) (27, 7.73401677608489990234e-01) (28, 3.22806090116500854492e-02) (29, 8.61110210418701171875e-01) (30, -6.05457007884979248047e-01) (31, -5.35488426685333251953e-01) (32, 9.26961451768875122070e-02) (33, 8.94679188728332519531e-01) (34, -4.73273068666458129883e-01) (35, -5.88795132935047149658e-02) (36, -5.49328565597534179688e-01) (37, 8.96957635879516601562e-01) (38, -6.58855557441711425781e-01) (39, -6.61933243274688720703e-01) (40, 4.84995618462562561035e-02) (41, 1.58792376518249511719e-01) (42, -1.30497083067893981934e-01) (43, -5.00832736492156982422e-01) (44, 7.21919775009155273438e-01) (45, 8.31699430942535400391e-01) (46, 1.32966503500938415527e-01) (47, 8.89925062656402587891e-01) (48, -5.06453633308410644531e-01) (49, -1.39050230383872985840e-01) (50, 3.44642437994480133057e-02) (51, 8.17855596542358398438e-01) (52, -5.22855460643768310547e-01) (53, -5.45370936393737792969e-01) (54, 8.63255202770233154297e-01) (55, -6.25353217124938964844e-01) (56, -2.32097636908292770386e-02) (57, -1.26345038414001464844e-01) (58, -5.24064823985099792480e-02) (59, 7.27294862270355224609e-01) (60, -5.86564004421234130859e-01) (61, -5.09754836559295654297e-01) (62, 8.57684135437011718750e-01) (63, -5.93867897987365722656e-01) (64, -5.33299565315246582031e-01) (65, -1.30707651376724243164e-01) (66, -1.02791547775268554688e-01) (67, -5.08727394044399261475e-02) (68, -5.55079221725463867188e-01) (69, 7.70563304424285888672e-01) (70, -6.12805962562561035156e-01) (71, -2.03474432229995727539e-01) (72, -5.68324029445648193359e-01) (73, -7.74253457784652709961e-02) (74, -1.23765647411346435547e-01) (75, -5.64628303050994873047e-01) (76, 1.55065596103668212891e-01) (77, -1.41768336296081542969e-01) (78, 1.49227278307080268860e-02) (79, -5.22294819355010986328e-01) (80, 3.90595607459545135498e-02) (81, -9.25852358341217041016e-02) (82, -1.13891094923019409180e-01) (83, 8.00305783748626708984e-01) (84, -4.89847540855407714844e-01) (85, 9.06469762325286865234e-01) (86, -5.43271422386169433594e-01) (87, -6.13057255744934082031e-01) (88, -5.41204512119293212891e-01) (89, -6.47569179534912109375e-01) (90, -5.93045502901077270508e-02) (91, -6.61890864372253417969e-01) (92, 7.44314193725585937500e-02) (93, -6.64526283740997314453e-01) (94, -5.89881002902984619141e-01) (95, -5.58868169784545898438e-01) (96, 3.34162786602973937988e-02) (97, -1.10872939229011535645e-01) (98, 8.02813377231359481812e-03) (99, 7.62438774108886718750e-01) (100, -4.92224574089050292969e-01) (101, -6.56669199466705322266e-01) (102, -5.62364876270294189453e-01) (103, -5.94670891761779785156e-01) (104, -5.85985839366912841797e-01) (105, -2.02528238296508789062e-02) (106, 2.43475865572690963745e-02) (107, 7.82274663448333740234e-01) (108, -5.22684574127197265625e-01) (109, -6.20470941066741943359e-01) (110, 7.25857555866241455078e-01) (111, -5.83625018596649169922e-01) (112, 9.30216338019818067551e-04) (113, -2.11924403905868530273e-01) (114, -9.84379425644874572754e-02) (115, -5.88917315006256103516e-01) (116, 1.52671873569488525391e-01) (117, 2.89130881428718566895e-02) (118, 8.48004877567291259766e-01) (119, -9.90054383873939514160e-02) (120, -5.60628294944763183594e-01) (121, 1.33644402027130126953e-01) (122, 1.96452699601650238037e-02) (123, 5.05876280367374420166e-02) (124, -4.72854107618331909180e-01) (125, 7.61974692344665527344e-01) (126, -4.79187369346618652344e-01) (127, -5.39437830448150634766e-01) (128, 6.50645494461059570312e-02) (129, -5.28148701414465904236e-03) (130, 1.35490586981177330017e-02) (131, -5.27159988880157470703e-01) (132, 8.70259702205657958984e-01) (133, 1.61397177726030349731e-02) (134, 7.28148579597473144531e-01) (135, 7.50151634216308593750e-01) (136, -6.63854360580444335938e-01) (137, 3.42721678316593170166e-02) (138, -5.21304011344909667969e-02) (139, -5.20661234855651855469e-01) (140, -6.38090074062347412109e-01) (141, -5.62265872955322265625e-01) (142, 1.41047269105911254883e-01) (143, 8.46941828727722167969e-01) (144, -5.11417806148529052734e-01) (145, 9.10027801990509033203e-01) (146, -1.15517593920230865479e-01) (147, -4.72323983907699584961e-01) (148, 4.96514700353145599365e-02) (149, 1.06365978717803955078e-01) (150, -1.05451680719852447510e-01) (151, -7.87784382700920104980e-02) (152, -5.38746416568756103516e-01) (153, 6.70469775795936584473e-02) (154, -1.99097618460655212402e-01) (155, -5.45722782611846923828e-01) (156, 8.87049436569213867188e-01) (157, 7.68589258193969726562e-01) (158, -6.19282901287078857422e-01) (159, -5.31987726688385009766e-01) (160, -6.95800557732582092285e-02) (0, -8.27504768967628479004e-02) (1, -5.93270003795623779297e-01) (2, 4.52281869947910308838e-02) (3, 8.09641003608703613281e-01) (4, -5.83345413208007812500e-01) (5, -4.88721936941146850586e-01) (6, -1.69332101941108703613e-01) (7, 7.83137142658233642578e-01) (8, -2.68659032881259918213e-02) (9, -1.28851830959320068359e-01) (10, -5.73176920413970947266e-01) (11, -4.89131808280944824219e-01) (12, -5.99751591682434082031e-01) (13, -6.44459068775177001953e-01) (14, 1.16170518100261688232e-01) (15, -6.07947766780853271484e-01) (16, -7.29030817747116088867e-02) (17, -4.27490994334220886230e-02) (18, 8.54898571968078613281e-01) (19, -5.03321647644042968750e-01) (20, 8.91420170664787292480e-02) (21, -5.45209109783172607422e-01) (22, -5.76190292835235595703e-01) (23, 7.25379228591918945312e-01) (24, 8.43435078859329223633e-02) (25, 7.28066384792327880859e-01) (26, 8.47191642969846725464e-03) (27, 7.52932727336883544922e-01) (28, -4.35627847909927368164e-02) (29, 8.28094601631164550781e-01) (30, -6.37976527214050292969e-01) (31, -5.92190980911254882812e-01) (32, 8.24783667922019958496e-02) (33, 8.91353368759155273438e-01) (34, -5.00773966312408447266e-01) (35, -1.40283063054084777832e-01) (36, -5.15592575073242187500e-01) (37, 7.76768147945404052734e-01) (38, -5.35953938961029052734e-01) (39, -6.42458438873291015625e-01) (40, -2.79894354753196239471e-03) (41, 1.36202633380889892578e-01) (42, -1.67343541979789733887e-01) (43, -5.02550542354583740234e-01) (44, 7.62267231941223144531e-01) (45, 8.49595069885253906250e-01) (46, 2.83187218010425567627e-02) (47, 7.89364159107208251953e-01) (48, -6.09746992588043212891e-01) (49, -1.04840777814388275146e-01) (50, -1.33812487125396728516e-01) (51, 8.56435120105743408203e-01) (52, -5.87277352809906005859e-01) (53, -5.42494058609008789062e-01) (54, 8.63590300083160400391e-01) (55, -6.02933883666992187500e-01) (56, 3.32260169088840484619e-02) (57, -1.41425490379333496094e-01) (58, -6.98561221361160278320e-02) (59, 9.07887220382690429688e-01) (60, -6.34660124778747558594e-01) (61, -5.40323972702026367188e-01) (62, 7.81573951244354248047e-01) (63, -6.52181744575500488281e-01) (64, -5.67194581031799316406e-01) (65, -2.34318748116493225098e-01) (66, -8.88020768761634826660e-02) (67, -5.10316640138626098633e-02) (68, -5.78879833221435546875e-01) (69, 7.26854503154754638672e-01) (70, -5.93490123748779296875e-01) (71, -7.85735324025154113770e-02) (72, -6.34622633457183837891e-01) (73, -9.49558839201927185059e-02) (74, -1.99825707823038101196e-02) (75, -5.90579390525817871094e-01) (76, 7.22147941589355468750e-01) (77, 5.90944215655326843262e-02) (78, 1.53500050306320190430e-01) (79, -6.05823099613189697266e-01) (80, 2.67150085419416427612e-02) (81, 1.26259969547390937805e-02) (82, 8.85768830776214599609e-02) (83, 7.23539352416992187500e-01) (84, -5.62359333038330078125e-01) (85, 8.61856043338775634766e-01) (86, -5.97618520259857177734e-01) (87, -6.29133343696594238281e-01) (88, -6.00898623466491699219e-01) (89, -4.99965906143188476562e-01) (90, -2.52448562532663345337e-02) (91, -5.69681048393249511719e-01) (92, -8.53438489139080047607e-03) (93, -5.76120138168334960938e-01) (94, -5.55985033512115478516e-01) (95, -4.75728958845138549805e-01) (96, 1.82113628834486007690e-02) (97, -1.66944209486246109009e-02) (98, -1.28391623497009277344e-01) (99, 7.23433256149291992188e-01) (100, -4.68647956848144531250e-01) (101, -5.54373025894165039062e-01) (102, -4.76469516754150390625e-01) (103, -6.37392878532409667969e-01) (104, -4.81820195913314819336e-01) (105, -3.05743347853422164917e-02) (106, -6.37255460023880004883e-02) (107, 9.06205475330352783203e-01) (108, -5.60160040855407714844e-01) (109, -6.15656077861785888672e-01) (110, 7.66260087490081787109e-01) (111, -6.33445024490356445312e-01) (112, -6.96436017751693725586e-02) (113, -2.16470673680305480957e-01) (114, -2.25024431943893432617e-01) (115, -5.32002925872802734375e-01) (116, 3.03511917591094970703e-01) (117, 9.09719392657279968262e-02) (118, 8.88843178749084472656e-01) (119, -2.07859516143798828125e-01) (120, -5.93958616256713867188e-01) (121, 2.04088419675827026367e-01) (122, -1.63990724831819534302e-02) (123, 8.81608724594116210938e-01) (124, -5.79093277454376220703e-01) (125, 7.79226303100585937500e-01) (126, -5.12344241142272949219e-01) (127, -6.60881936550140380859e-01) (128, -5.03983460366725921631e-02) (129, 2.51418668776750564575e-02) (130, -9.94838103652000427246e-02) (131, -6.19046270847320556641e-01) (132, 8.22379291057586669922e-01) (133, 1.84577956795692443848e-01) (134, 7.93540298938751220703e-01) (135, 8.06436836719512939453e-01) (136, -5.29330015182495117188e-01) (137, 1.15907536819577217102e-02) (138, -9.13143977522850036621e-02) (139, -6.23612344264984130859e-01) (140, -6.36556565761566162109e-01) (141, -5.41647315025329589844e-01) (142, 1.88276097178459167480e-01) (143, 7.77901530265808105469e-01) (144, -4.95345532894134521484e-01) (145, 8.30670118331909179688e-01) (146, 1.41899853944778442383e-01) (147, -5.05411624908447265625e-01) (148, 7.36677408218383789062e-01) (149, 8.82395505905151367188e-01) (150, -2.47393444180488586426e-01) (151, -1.72399953007698059082e-01) (152, -5.04679381847381591797e-01) (153, 1.73550322651863098145e-01) (154, -2.09015235304832458496e-01) (155, -6.17894947528839111328e-01) (156, 7.45715081691741943359e-01) (157, 7.25514769554138183594e-01) (158, -6.12899124622344970703e-01) (159, -5.88784992694854736328e-01) (160, -6.28311410546302795410e-02) (0, -3.68163697421550750732e-02) (1, -5.41953563690185546875e-01) (2, 4.09667240455746650696e-03) (3, 7.81020939350128173828e-01) (4, -4.66637253761291503906e-01) (5, -4.73568201065063476562e-01) (6, -1.54590550810098648071e-02) (7, 1.23753473162651062012e-01) (8, -3.14961336553096771240e-02) (9, -7.91090726852416992188e-02) (10, -6.58216595649719238281e-01) (11, -4.73143458366394042969e-01) (12, -5.49569666385650634766e-01) (13, -5.98538994789123535156e-01) (14, 8.70823115110397338867e-02) (15, -6.37123525142669677734e-01) (16, -3.91089357435703277588e-02) (17, 3.01353028044104576111e-03) (18, 7.65431582927703857422e-01) (19, -6.40815138816833496094e-01) (20, 6.69572800397872924805e-02) (21, -5.28297603130340576172e-01) (22, -4.79616791009902954102e-01) (23, 8.23824405670166015625e-01) (24, 9.13373976945877075195e-02) (25, 7.52467691898345947266e-01) (26, 1.23724546283483505249e-02) (27, 9.16852116584777832031e-01) (28, -1.27777056768536567688e-02) (29, 7.28408277034759521484e-01) (30, -4.67308223247528076172e-01) (31, -5.15471816062927246094e-01) (32, 3.41084450483322143555e-02) (33, 8.20890128612518310547e-01) (34, -6.52674853801727294922e-01) (35, 3.15677677281200885773e-03) (36, -5.70901989936828613281e-01) (37, 7.30771481990814208984e-01) (38, -5.54188787937164306641e-01) (39, -5.02398133277893066406e-01) (40, -4.58425506949424743652e-02) (41, 4.31659035384654998779e-02) (42, 3.54947783052921295166e-02) (43, -4.95412230491638183594e-01) (44, 1.31500288844108581543e-01) (45, 8.37704300880432128906e-01) (46, 1.27065300941467285156e-01) (47, 7.65803873538970947266e-01) (48, -6.22664809226989746094e-01) (49, -1.68376341462135314941e-01) (50, -4.80766184628009796143e-02) (51, 1.27738103270530700684e-01) (52, -4.81870263814926147461e-01) (53, -6.06974303722381591797e-01) (54, 8.06149005889892578125e-01) (55, -4.90532875061035156250e-01) (56, -6.85287406668066978455e-03) (57, -1.93787112832069396973e-01) (58, 5.32539412379264831543e-02) (59, 8.98593425750732421875e-01) (60, -6.34676873683929443359e-01) (61, -4.93335217237472534180e-01) (62, 8.48999321460723876953e-01) (63, -5.00568449497222900391e-01) (64, -5.90669035911560058594e-01) (65, -7.08254650235176086426e-02) (66, -2.20608599483966827393e-02) (67, 7.01844021677970886230e-02) (68, -5.09352087974548339844e-01) (69, -4.42393794655799865723e-02) (70, -5.32213747501373291016e-01) (71, -2.04120591282844543457e-01) (72, -5.36180496215820312500e-01) (73, -3.08412369340658187866e-02) (74, 6.04295544326305389404e-02) (75, -5.49491703510284423828e-01) (76, -4.58303354680538177490e-02) (77, 4.92297597229480743408e-02) (78, 9.18114483356475830078e-02) (79, -6.13306641578674316406e-01) (80, -7.32043385505676269531e-02) (81, -8.41107591986656188965e-02) (82, -9.62428674101829528809e-02) (83, 7.29027152061462402344e-01) (84, -5.70366024971008300781e-01) (85, 6.76322504878044128418e-02) (86, -4.79729741811752319336e-01) (87, -4.77218896150588989258e-01) (88, -5.22040426731109619141e-01) (89, -5.05756735801696777344e-01) (90, 7.09466859698295593262e-02) (91, -4.90839600563049316406e-01) (92, 3.26635353267192840576e-02) (93, -5.66074132919311523438e-01) (94, -5.25530338287353515625e-01) (95, -6.58005535602569580078e-01) (96, -5.62182068824768066406e-02) (97, -9.11865308880805969238e-02) (98, 5.73375597596168518066e-02) (99, 7.18531429767608642578e-01) (100, -6.16524934768676757812e-01) (101, -5.54157078266143798828e-01) (102, -6.54887199401855468750e-01) (103, -4.86827760934829711914e-01) (104, -6.64279282093048095703e-01) (105, 7.14200958609580993652e-02) (106, -2.52830926328897476196e-02) (107, 7.29180634021759033203e-01) (108, -4.93370234966278076172e-01) (109, -6.06475889682769775391e-01) (110, 7.81751692295074462891e-01) (111, -4.66574579477310180664e-01) (112, -3.98985389620065689087e-03) (113, -1.16380266845226287842e-01) (114, -2.04697385430335998535e-01) (115, -4.74355876445770263672e-01) (116, -5.49400337040424346924e-02) (117, 1.20070137083530426025e-01) (118, 8.98404657840728759766e-01) (119, -4.97222207486629486084e-02) (120, -5.09502410888671875000e-01) (121, 7.70545378327369689941e-02) (122, 1.94005183875560760498e-02) (123, 3.38503681123256683350e-02) (124, -6.16865158081054687500e-01) (125, 7.98690974712371826172e-01) (126, -5.68966627120971679688e-01) (127, -5.73083400726318359375e-01) (128, 1.94726362824440002441e-02) (129, -4.57513518631458282471e-02) (130, -3.80367822945117950439e-02) (131, -4.97052341699600219727e-01) (132, 9.04912292957305908203e-01) (133, 2.79081556946039199829e-02) (134, 8.66099357604980468750e-01) (135, 9.06510770320892333984e-01) (136, -5.69646239280700683594e-01) (137, -7.74076953530311584473e-02) (138, 7.85243213176727294922e-02) (139, -5.97138702869415283203e-01) (140, -5.63164532184600830078e-01) (141, -6.03106617927551269531e-01) (142, -8.14200658351182937622e-03) (143, 9.16947364807128906250e-01) (144, -5.04683256149291992188e-01) (145, 2.29599867016077041626e-02) (146, 9.21636447310447692871e-02) (147, -4.83439147472381591797e-01) (148, 1.92142911255359649658e-02) (149, 1.15237407386302947998e-01) (150, -6.72836080193519592285e-02) (151, -1.84025570750236511230e-01) (152, -5.46242892742156982422e-01) (153, 1.54852308332920074463e-02) (154, -9.49866846203804016113e-02) (155, -4.97230350971221923828e-01) (156, 8.86330604553222656250e-01) (157, 7.34952092170715332031e-01) (158, -6.04435980319976806641e-01) (159, -5.78298449516296386719e-01) (160, -1.23107902705669403076e-01) (0, 5.45435100793838500977e-02) (1, 7.74628698825836181641e-01) (2, -2.16159000992774963379e-02) (3, -6.07241868972778320312e-01) (4, 7.22504079341888427734e-01) (5, 7.84894883632659912109e-01) (6, 1.46431401371955871582e-01) (7, -6.18286311626434326172e-01) (8, -3.40857319533824920654e-02) (9, -5.66849932074546813965e-02) (10, 8.68528604507446289062e-01) (11, 8.46909344196319580078e-01) (12, 8.09872508049011230469e-01) (13, 8.67251992225646972656e-01) (14, -1.13736480474472045898e-01) (15, 8.88020992279052734375e-01) (16, 3.92732135951519012451e-02) (17, -7.97291286289691925049e-03) (18, -6.21677935123443603516e-01) (19, 8.27923059463500976562e-01) (20, -1.83777838945388793945e-01) (21, 7.93201863765716552734e-01) (22, 7.47557938098907470703e-01) (23, -5.58399617671966552734e-01) (24, 9.47948545217514038086e-02) (25, -4.67896401882171630859e-01) (26, -4.70656855031847953796e-03) (27, -6.54354810714721679688e-01) (28, -4.05769310891628265381e-02) (29, -5.02713680267333984375e-01) (30, 8.21442663669586181641e-01) (31, 7.32190608978271484375e-01) (32, -8.04312601685523986816e-02) (33, -4.84274953603744506836e-01) (34, 7.90826380252838134766e-01) (35, -9.04637109488248825073e-03) (36, 7.66497671604156494141e-01) (37, -6.38407945632934570312e-01) (38, 7.89664268493652343750e-01) (39, 8.32411885261535644531e-01) (40, -4.89238947629928588867e-02) (41, -1.81871414184570312500e-01) (42, -3.74180600047111511230e-02) (43, 8.60948622226715087891e-01) (44, -4.95104819536209106445e-01) (45, -5.33124625682830810547e-01) (46, -9.10946801304817199707e-02) (47, -5.55831611156463623047e-01) (48, 7.23295509815216064453e-01) (49, 1.48285478353500366211e-01) (50, -6.05460964143276214600e-02) (51, -6.40967726707458496094e-01) (52, 7.49923288822174072266e-01) (53, 7.67303168773651123047e-01) (54, -5.33489584922790527344e-01) (55, 7.44718194007873535156e-01) (56, -5.29394671320915222168e-02) (57, -4.63015225250273942947e-04) (58, -4.22742851078510284424e-02) (59, -5.59394121170043945312e-01) (60, 8.89360904693603515625e-01) (61, 8.59459698200225830078e-01) (62, -5.45427560806274414062e-01) (63, 9.08929705619812011719e-01) (64, 8.41062486171722412109e-01) (65, 1.84616684913635253906e-01) (66, -6.57368153333663940430e-02) (67, 7.11121857166290283203e-02) (68, 7.38746345043182373047e-01) (69, -5.79882919788360595703e-01) (70, 8.03524076938629150391e-01) (71, 6.31625428795814514160e-02) (72, 8.25963675975799560547e-01) (73, 4.78820465505123138428e-02) (74, -6.59682527184486389160e-02) (75, 7.96736598014831542969e-01) (76, -6.04951202869415283203e-01) (77, 7.84563943743705749512e-02) (78, -1.50575740262866020203e-02) (79, 7.84222006797790527344e-01) (80, -1.64338778704404830933e-02) (81, -7.19873607158660888672e-02) (82, 4.25197072327136993408e-02) (83, -5.50612270832061767578e-01) (84, 7.75607168674468994141e-01) (85, -6.42581582069396972656e-01) (86, 8.59983563423156738281e-01) (87, 8.22667658329010009766e-01) (88, 7.49493062496185302734e-01) (89, 8.98000597953796386719e-01) (90, -7.30237066745758056641e-02) (91, 7.20630049705505371094e-01) (92, 2.10123751312494277954e-02) (93, 8.49601447582244873047e-01) (94, 9.11335706710815429688e-01) (95, 7.62074887752532958984e-01) (96, 2.44300719350576400757e-02) (97, -2.52289511263370513916e-02) (98, -6.53282552957534790039e-02) (99, -5.20925283432006835938e-01) (100, 8.11884999275207519531e-01) (101, 8.18487167358398437500e-01) (102, 7.34774887561798095703e-01) (103, 7.19624698162078857422e-01) (104, 7.46660590171813964844e-01) (105, -4.94173727929592132568e-02) (106, -3.78025142708793282509e-04) (107, -5.76514661312103271484e-01) (108, 8.75942647457122802734e-01) (109, 7.86696016788482666016e-01) (110, -5.10516643524169921875e-01) (111, 7.59508788585662841797e-01) (112, -2.32239775359630584717e-02) (113, 3.78332026302814483643e-02) (114, 1.48114293813705444336e-01) (115, 8.52383136749267578125e-01) (116, -1.34051024913787841797e-01) (117, -1.05306506156921386719e-01) (118, -6.27274870872497558594e-01) (119, 9.23984125256538391113e-02) (120, 7.96310424804687500000e-01) (121, -1.54086127877235412598e-01) (122, 2.29490119963884353638e-02) (123, -4.66778934001922607422e-01) (124, 8.99131655693054199219e-01) (125, -5.69525659084320068359e-01) (126, 7.61173665523529052734e-01) (127, 8.23561728000640869141e-01) (128, 4.01830533519387245178e-03) (129, -2.23785620182752609253e-02) (130, 1.90184137318283319473e-03) (131, 9.15903329849243164062e-01) (132, -5.07701754570007324219e-01) (133, -1.36775270104408264160e-01) (134, -4.66797709465026855469e-01) (135, -4.79265183210372924805e-01) (136, 8.15938949584960937500e-01) (137, -1.29798927810043096542e-03) (138, -4.31570550426840782166e-03) (139, 7.73657679557800292969e-01) (140, 8.65689396858215332031e-01) (141, 7.49560713768005371094e-01) (142, -1.06897808611392974854e-01) (143, -6.41636312007904052734e-01) (144, 7.95829832553863525391e-01) (145, -6.12608969211578369141e-01) (146, 7.44496062397956848145e-02) (147, 8.65395128726959228516e-01) (148, -5.14299213886260986328e-01) (149, -4.68874245882034301758e-01) (150, 3.95695380866527557373e-02) (151, 2.12290231138467788696e-02) (152, 7.64757692813873291016e-01) (153, -5.23705035448074340820e-02) (154, 2.03278232365846633911e-02) (155, 7.45665371417999267578e-01) (156, -6.18279874324798583984e-01) (157, -5.94164252281188964844e-01) (158, 8.51003050804138183594e-01) (159, 8.69840145111083984375e-01) (160, 1.21190294623374938965e-01) (0, 8.30692201852798461914e-02) (1, -5.16582250595092773438e-01) (2, -1.21977953240275382996e-02) (3, 7.68134236335754394531e-01) (4, -5.17502188682556152344e-01) (5, -5.91462969779968261719e-01) (6, 7.73566635325551033020e-03) (7, 5.75428009033203125000e-02) (8, 5.03903999924659729004e-02) (9, -1.05987921357154846191e-01) (10, -4.91043448448181152344e-01) (11, -4.84150618314743041992e-01) (12, -5.66100299358367919922e-01) (13, -4.66802030801773071289e-01) (14, 3.55435423552989959717e-02) (15, -5.12831568717956542969e-01) (16, 5.74763305485248565674e-02) (17, -1.02542772889137268066e-01) (18, 9.98071655631065368652e-02) (19, -5.11397898197174072266e-01) (20, 3.07201184332370758057e-02) (21, -5.31588077545166015625e-01) (22, -6.64864242076873779297e-01) (23, 7.23979353904724121094e-01) (24, 6.30533844232559204102e-02) (25, 2.36373208463191986084e-02) (26, -5.56936301290988922119e-02) (27, 7.52990841865539550781e-01) (28, 6.12339079380035400391e-02) (29, 7.23193407058715820312e-01) (30, -5.01484632492065429688e-01) (31, -5.21574616432189941406e-01) (32, 5.42648956179618835449e-02) (33, 4.73777502775192260742e-02) (34, -4.71664339303970336914e-01) (35, -6.40642736107110977173e-03) (36, -5.39267718791961669922e-01) (37, 8.60062599182128906250e-01) (38, -5.35868406295776367188e-01) (39, -5.88877320289611816406e-01) (40, 4.48975935578346252441e-02) (41, 8.10541734099388122559e-02) (42, -5.03192916512489318848e-02) (43, -6.21202707290649414062e-01) (44, 1.08060911297798156738e-01) (45, 8.36284518241882324219e-01) (46, 1.73931807279586791992e-01) (47, 7.79619634151458740234e-01) (48, -5.41313111782073974609e-01) (49, -3.75437103211879730225e-02) (50, -9.31713879108428955078e-02) (51, 2.09248080849647521973e-01) (52, -6.29242181777954101562e-01) (53, -6.48988723754882812500e-01) (54, 9.03053522109985351562e-01) (55, -4.66188818216323852539e-01) (56, -5.46561740338802337646e-02) (57, -1.01706869900226593018e-01) (58, -7.45911300182342529297e-02) (59, 7.24801719188690185547e-01) (60, -6.22725605964660644531e-01) (61, -4.67028945684432983398e-01) (62, 1.46063327789306640625e-01) (63, -4.68460708856582641602e-01) (64, -6.14833652973175048828e-01) (65, 5.20465197041630744934e-03) (66, -8.98939557373523712158e-03) (67, 7.76541084051132202148e-02) (68, -5.78944861888885498047e-01) (69, 6.02406859397888183594e-02) (70, -6.11223161220550537109e-01) (71, -1.08059123158454895020e-01) (72, -5.30967354774475097656e-01) (73, 4.33523952960968017578e-03) (74, -3.25413234531879425049e-02) (75, -6.27048015594482421875e-01) (76, 5.69333508610725402832e-02) (77, -3.42726856470108032227e-02) (78, 7.64359310269355773926e-02) (79, -5.09870469570159912109e-01) (80, 7.65726193785667419434e-02) (81, 7.05398479476571083069e-03) (82, 2.65819840133190155029e-02) (83, 7.31432139873504638672e-01) (84, -5.32887876033782958984e-01) (85, 1.24052517116069793701e-01) (86, -6.52980685234069824219e-01) (87, -4.87544089555740356445e-01) (88, -5.07784068584442138672e-01) (89, -6.18524968624114990234e-01) (90, 9.69406142830848693848e-02) (91, -6.64631962776184082031e-01) (92, -5.37984110414981842041e-02) (93, -5.30085504055023193359e-01) (94, -4.67214912176132202148e-01) (95, -5.68632066249847412109e-01) (96, -1.91135015338659286499e-02) (97, -1.03265568614006042480e-02) (98, -3.41470763087272644043e-02) (99, 1.63001865148544311523e-01) (100, -5.37090659141540527344e-01) (101, -5.36323428153991699219e-01) (102, -4.66227859258651733398e-01) (103, -6.02180242538452148438e-01) (104, -6.22941315174102783203e-01) (105, -3.28914485871791839600e-02) (106, -6.51968549937009811401e-03) (107, 6.95615112781524658203e-02) (108, -5.15495598316192626953e-01) (109, -6.63125216960906982422e-01) (110, 7.48610258102416992188e-01) (111, -5.38922965526580810547e-01) (112, 1.88533775508403778076e-02) (113, 2.55780927836894989014e-02) (114, 2.73288926109671592712e-04) (115, -6.14034533500671386719e-01) (116, 6.15891963243484497070e-02) (117, 1.29270479083061218262e-01) (118, 7.48400866985321044922e-01) (119, -9.64173153042793273926e-02) (120, -6.65465056896209716797e-01) (121, -8.70117545127868652344e-03) (122, -6.43287673592567443848e-02) (123, 7.21050277352333068848e-02) (124, -5.14997243881225585938e-01) (125, 7.61604905128479003906e-01) (126, -5.22017776966094970703e-01) (127, -6.34110748767852783203e-01) (128, 4.21012379229068756104e-02) (129, -9.02871340513229370117e-02) (130, 9.10869613289833068848e-02) (131, -5.94989418983459472656e-01) (132, 1.43496513366699218750e-01) (133, 1.75446867942810058594e-01) (134, 8.52809727191925048828e-01) (135, 9.09474432468414306641e-01) (136, -5.90486049652099609375e-01) (137, -7.19339177012443542480e-02) (138, -4.34173569083213806152e-02) (139, -6.40103936195373535156e-01) (140, -6.26012265682220458984e-01) (141, -5.69861948490142822266e-01) (142, 1.28939092159271240234e-01) (143, 8.76942873001098632812e-01) (144, -6.04394257068634033203e-01) (145, 9.70330014824867248535e-02) (146, -7.74087086319923400879e-02) (147, -5.19015669822692871094e-01) (148, 7.14420676231384277344e-02) (149, 6.62296563386917114258e-02) (150, 5.04447817802429199219e-02) (151, -9.35255587100982666016e-02) (152, -6.10050559043884277344e-01) (153, 1.12630482763051986694e-02) (154, -4.69112507998943328857e-02) (155, -6.59170091152191162109e-01) (156, 7.96657383441925048828e-01) (157, 7.55062282085418701172e-01) (158, -6.27403080463409423828e-01) (159, -6.45343065261840820312e-01) (160, -8.42915475368499755859e-02) (0, -6.19389489293098449707e-02) (1, -5.74454784393310546875e-01) (2, -9.60879027843475341797e-02) (3, 7.55521297454833984375e-01) (4, -6.39868974685668945312e-01) (5, -4.70715165138244628906e-01) (6, -1.80293172597885131836e-02) (7, 5.23923337459564208984e-02) (8, -3.92079502344131469727e-02) (9, 3.47740873694419860840e-02) (10, -5.62890529632568359375e-01) (11, -5.09069919586181640625e-01) (12, -5.74686408042907714844e-01) (13, -6.04171693325042724609e-01) (14, 1.34737743064761161804e-02) (15, -4.81795042753219604492e-01) (16, -2.77318861335515975952e-02) (17, 6.14646971225738525391e-02) (18, 5.12187965214252471924e-02) (19, -5.52870690822601318359e-01) (20, 1.50670215487480163574e-01) (21, -5.89479625225067138672e-01) (22, -4.97043520212173461914e-01) (23, 9.08764183521270751953e-01) (24, 6.93764537572860717773e-02) (25, 1.96726605296134948730e-01) (26, -3.47150377929210662842e-02) (27, 7.24438786506652832031e-01) (28, -8.59834626317024230957e-02) (29, 8.07732224464416503906e-01) (30, -6.04064881801605224609e-01) (31, -6.13800108432769775391e-01) (32, 8.09312388300895690918e-02) (33, 8.69096517562866210938e-02) (34, -5.76502799987792968750e-01) (35, -1.02279685437679290771e-01) (36, -6.04990243911743164062e-01) (37, 7.20287919044494628906e-01) (38, -5.95816016197204589844e-01) (39, -5.44198215007781982422e-01) (40, 4.05266433954238891602e-02) (41, 1.68231338262557983398e-01) (42, -2.52013243734836578369e-02) (43, -6.34159803390502929688e-01) (44, 5.59396557509899139404e-02) (45, 8.15002620220184326172e-01) (46, 1.09831430017948150635e-02) (47, 8.25246989727020263672e-01) (48, -6.03945732116699218750e-01) (49, -8.48836004734039306641e-02) (50, -8.36586207151412963867e-02) (51, 6.69039366766810417175e-03) (52, -5.43644905090332031250e-01) (53, -4.77013468742370605469e-01) (54, 6.59686625003814697266e-02) (55, -5.74268460273742675781e-01) (56, 6.44061416387557983398e-02) (57, -5.37846907973289489746e-02) (58, -5.86464675143361091614e-03) (59, 8.96646678447723388672e-01) (60, -4.99435871839523315430e-01) (61, -5.06240904331207275391e-01) (62, 5.16850017011165618896e-02) (63, -5.18504619598388671875e-01) (64, -6.40515983104705810547e-01) (65, -1.08431316912174224854e-02) (66, 5.06244376301765441895e-02) (67, -1.37507729232311248779e-02) (68, -5.43938696384429931641e-01) (69, 1.36454235762357711792e-02) (70, -6.57948970794677734375e-01) (71, -6.82526230812072753906e-02) (72, -4.68454092741012573242e-01) (73, -1.72725729644298553467e-02) (74, -9.50505305081605911255e-03) (75, -6.33699178695678710938e-01) (76, 1.82766333222389221191e-01) (77, 7.64616124797612428665e-04) (78, 1.34384050965309143066e-01) (79, -6.20750963687896728516e-01) (80, 5.58189786970615386963e-02) (81, 5.55429719388484954834e-02) (82, -4.66731674969196319580e-02) (83, 1.36060476303100585938e-01) (84, -5.17781853675842285156e-01) (85, 9.16911959648132324219e-02) (86, -4.96216684579849243164e-01) (87, -5.53375661373138427734e-01) (88, -5.18437683582305908203e-01) (89, -5.98392665386199951172e-01) (90, -9.37844719737768173218e-03) (91, -5.51995754241943359375e-01) (92, -7.28780776262283325195e-02) (93, -5.44452726840972900391e-01) (94, -6.04622662067413330078e-01) (95, -6.13394021987915039062e-01) (96, -5.86998462677001953125e-02) (97, -9.36515033245086669922e-02) (98, 3.50442267954349517822e-02) (99, 1.84423923492431640625e-01) (100, -6.25934779644012451172e-01) (101, -5.19216060638427734375e-01) (102, -6.40172839164733886719e-01) (103, -6.28511130809783935547e-01) (104, -6.32799983024597167969e-01) (105, 1.61998253315687179565e-02) (106, -3.41435186564922332764e-02) (107, 3.74572314321994781494e-02) (108, -6.36004924774169921875e-01) (109, -6.57131016254425048828e-01) (110, 1.19407922029495239258e-01) (111, -4.80185985565185546875e-01) (112, 6.79783672094345092773e-02) (113, -6.77259359508752822876e-03) (114, -6.69747740030288696289e-02) (115, -5.49803435802459716797e-01) (116, 1.89634650945663452148e-01) (117, 2.85870693624019622803e-02) (118, 7.46800303459167480469e-01) (119, 1.11739169806241989136e-02) (120, -5.64988076686859130859e-01) (121, 1.14683523774147033691e-01) (122, -4.79145199060440063477e-02) (123, 1.27583160996437072754e-01) (124, -6.24951660633087158203e-01) (125, 8.35253179073333740234e-01) (126, -4.85382497310638427734e-01) (127, -5.83651542663574218750e-01) (128, 3.25973704457283020020e-02) (129, 1.55394924804568290710e-02) (130, -6.37542828917503356934e-02) (131, -4.93337422609329223633e-01) (132, 8.70745629072189331055e-02) (133, 6.63527473807334899902e-02) (134, 7.28130936622619628906e-01) (135, 8.17191541194915771484e-01) (136, -4.74818974733352661133e-01) (137, -2.42366120219230651855e-02) (138, 1.15513876080513000488e-02) (139, -6.44946217536926269531e-01) (140, -5.77678918838500976562e-01) (141, -4.89238470792770385742e-01) (142, 1.80575822014361619949e-03) (143, 7.74401128292083740234e-01) (144, -5.65292716026306152344e-01) (145, 9.15515497326850891113e-02) (146, 7.19482600688934326172e-02) (147, -5.70840597152709960938e-01) (148, 1.03342995047569274902e-01) (149, 3.99355223635211586952e-04) (150, -9.37889516353607177734e-02) (151, -1.26057222485542297363e-01) (152, -5.45548915863037109375e-01) (153, 8.78859758377075195312e-02) (154, 1.95435341447591781616e-03) (155, -5.04622876644134521484e-01) (156, 7.27956712245941162109e-01) (157, 1.71176612377166748047e-01) (158, -6.22396707534790039062e-01) (159, -5.23547649383544921875e-01) (160, -9.83222275972366333008e-02) (161, 8.07170391082763671875e-01) (162, 1.61424711346626281738e-01) (163, -5.67591845989227294922e-01) (164, 4.52601194381713867188e-01) (165, 8.43001246452331542969e-01) (166, 9.15477454662322998047e-01) (167, 1.97729766368865966797e-01) (168, -3.09622287750244140625e-01) (169, 1.93276837468147277832e-01) (170, 2.18661293387413024902e-01) (171, -1.38570338487625122070e-01) 
