FANN_FLO_2.0
num_layers=3
learning_rate=0.700000
connection_rate=1.000000
shortcut_connections=0
learning_momentum=0.000000
training_algorithm=2
train_error_function=1
train_stop_function=0
cascade_output_change_fraction=0.010000
quickprop_decay=-0.000100
quickprop_mu=1.750000
rprop_increase_factor=1.200000
rprop_decrease_factor=0.500000
rprop_delta_min=0.000000
rprop_delta_max=50.000000
rprop_delta_zero=0.500000
cascade_output_stagnation_epochs=12
cascade_candidate_change_fraction=0.010000
cascade_candidate_stagnation_epochs=12
cascade_max_out_epochs=150
cascade_max_cand_epochs=150
cascade_num_candidate_groups=2
bit_fail_limit=3.49999994039535522461e-01
cascade_candidate_limit=1.00000000000000000000e+03
cascade_weight_multiplier=4.00000005960464477539e-01
cascade_activation_functions_count=6
cascade_activation_functions=3 5 7 8 10 11 
cascade_activation_steepnesses_count=4
cascade_activation_steepnesses=2.50000000000000000000e-01 5.00000000000000000000e-01 7.50000000000000000000e-01 1.00000000000000000000e+00 
layer_sizes=161 11 2 
neurons (num_inputs, activation_function, activation_steepness)=(0, 0, 0.00000000000000000000e+00) (0, 0, 0.00000000000000000000e+00) (0, 0, 0.00000000000000000000e+00) (0, 0, 0.00000000000000000000e+00) (0, 0, 0.00000000000000000000e+00) (0, 0, 0.00000000000000000000e+00) (0, 0, 0.00000000000000000000e+00) (0, 0, 0.00000000000000000000e+00) (0, 0, 0.00000000000000000000e+00) (0, 0, 0.00000000000000000000e+00) (0, 0, 0.00000000000000000000e+00) (0, 0, 0.00000000000000000000e+00) (0, 0, 0.00000000000000000000e+00) (0, 0, 0.00000000000000000000e+00) (0, 0, 0.00000000000000000000e+00) (0, 0, 0.00000000000000000000e+00) (0, 0, 0.00000000000000000000e+00) (0, 0, 0.00000000000000000000e+00) (0, 0, 0.00000000000000000000e+00) (0, 0, 0.00000000000000000000e+00) (0, 0, 0.00000000000000000000e+00) (0, 0, 0.00000000000000000000e+00) (0, 0, 0.00000000000000000000e+00) (0, 0, 0.00000000000000000000e+00) (0, 0, 0.00000000000000000000e+00) (0, 0, 0.00000000000000000000e+00) (0, 0, 0.00000000000000000000e+00) (0, 0, 0.00000000000000000000e+00) (0, 0, 0.00000000000000000000e+00) (0, 0, 0.00000000000000000000e+00) (0, 0, 0.00000000000000000000e+00) (0, 0, 0.00000000000000000000e+00) (0, 0, 0.00000000000000000000e+00) (0, 0, 0.00000000000000000000e+00) (0, 0, 0.00000000000000000000e+00) (0, 0, 0.00000000000000000000e+00) (0, 0, 0.00000000000000000000e+00) (0, 0, 0.00000000000000000000e+00) (0, 0, 0.00000000000000000000e+00) (0, 0, 0.00000000000000000000e+00) (0, 0, 0.00000000000000000000e+00) (0, 0, 0.00000000000000000000e+00) (0, 0, 0.00000000000000000000e+00) (0, 0, 0.00000000000000000000e+00) (0, 0, 0.00000000000000000000e+00) (0, 0, 0.00000000000000000000e+00) (0, 0, 0.00000000000000000000e+00) (0, 0, 0.00000000000000000000e+00) (0, 0, 0.00000000000000000000e+00) (0, 0, 0.00000000000000000000e+00) (0, 0, 0.00000000000000000000e+00) (0, 0, 0.00000000000000000000e+00) (0, 0, 0.00000000000000000000e+00) (0, 0, 0.00000000000000000000e+00) (0, 0, 0.00000000000000000000e+00) (0, 0, 0.00000000000000000000e+00) (0, 0, 0.00000000000000000000e+00) (0, 0, 0.00000000000000000000e+00) (0, 0, 0.00000000000000000000e+00) (0, 0, 0.00000000000000000000e+00) (0, 0, 0.00000000000000000000e+00) (0, 0, 0.00000000000000000000e+00) (0, 0, 0.00000000000000000000e+00) (0, 0, 0.00000000000000000000e+00) (0, 0, 0.00000000000000000000e+00) (0, 0, 0.00000000000000000000e+00) (0, 0, 0.00000000000000000000e+00) (0, 0, 0.00000000000000000000e+00) (0, 0, 0.00000000000000000000e+00) (0, 0, 0.00000000000000000000e+00) (0, 0, 0.00000000000000000000e+00) (0, 0, 0.00000000000000000000e+00) (0, 0, 0.00000000000000000000e+00) (0, 0, 0.00000000000000000000e+00) (0, 0, 0.00000000000000000000e+00) (0, 0, 0.00000000000000000000e+00) (0, 0, 0.00000000000000000000e+00) (0, 0, 0.00000000000000000000e+00) (0, 0, 0.00000000000000000000e+00) (0, 0, 0.00000000000000000000e+00) (0, 0, 0.00000000000000000000e+00) (0, 0, 0.00000000000000000000e+00) (0, 0, 0.00000000000000000000e+00) (0, 0, 0.00000000000000000000e+00) (0, 0, 0.00000000000000000000e+00) (0, 0, 0.00000000000000000000e+00) (0, 0, 0.00000000000000000000e+00) (0, 0, 0.00000000000000000000e+00) (0, 0, 0.00000000000000000000e+00) (0, 0, 0.00000000000000000000e+00) (0, 0, 0.00000000000000000000e+00) (0, 0, 0.00000000000000000000e+00) (0, 0, 0.00000000000000000000e+00) (0, 0, 0.00000000000000000000e+00) (0, 0, 0.00000000000000000000e+00) (0, 0, 0.00000000000000000000e+00) (0, 0, 0.00000000000000000000e+00) (0, 0, 0.00000000000000000000e+00) (0, 0, 0.00000000000000000000e+00) (0, 0, 0.00000000000000000000e+00) (0, 0, 0.00000000000000000000e+00) (0, 0, 0.00000000000000000000e+00) (0, 0, 0.00000000000000000000e+00) (0, 0, 0.00000000000000000000e+00) (0, 0, 0.00000000000000000000e+00) (0, 0, 0.00000000000000000000e+00) (0, 0, 0.00000000000000000000e+00) (0, 0, 0.00000000000000000000e+00) (0, 0, 0.00000000000000000000e+00) (0, 0, 0.00000000000000000000e+00) (0, 0, 0.00000000000000000000e+00) (0, 0, 0.00000000000000000000e+00) (0, 0, 0.00000000000000000000e+00) (0, 0, 0.00000000000000000000e+00) (0, 0, 0.00000000000000000000e+00) (0, 0, 0.00000000000000000000e+00) (0, 0, 0.00000000000000000000e+00) (0, 0, 0.00000000000000000000e+00) (0, 0, 0.00000000000000000000e+00) (0, 0, 0.00000000000000000000e+00) (0, 0, 0.00000000000000000000e+00) (0, 0, 0.00000000000000000000e+00) (0, 0, 0.00000000000000000000e+00) (0, 0, 0.00000000000000000000e+00) (0, 0, 0.00000000000000000000e+00) (0, 0, 0.00000000000000000000e+00) (0, 0, 0.00000000000000000000e+00) (0, 0, 0.00000000000000000000e+00) (0, 0, 0.00000000000000000000e+00) (0, 0, 0.00000000000000000000e+00) (0, 0, 0.00000000000000000000e+00) (0, 0, 0.00000000000000000000e+00) (0, 0, 0.00000000000000000000e+00) (0, 0, 0.00000000000000000000e+00) (0, 0, 0.00000000000000000000e+00) (0, 0, 0.00000000000000000000e+00) (0, 0, 0.00000000000000000000e+00) (0, 0, 0.00000000000000000000e+00) (0, 0, 0.00000000000000000000e+00) (0, 0, 0.00000000000000000000e+00) (0, 0, 0.00000000000000000000e+00) (0, 0, 0.00000000000000000000e+00) (0, 0, 0.00000000000000000000e+00) (0, 0, 0.00000000000000000000e+00) (0, 0, 0.00000000000000000000e+00) (0, 0, 0.00000000000000000000e+00) (0, 0, 0.00000000000000000000e+00) (0, 0, 0.00000000000000000000e+00) (0, 0, 0.00000000000000000000e+00) (0, 0, 0.00000000000000000000e+00) (0, 0, 0.00000000000000000000e+00) (0, 0, 0.00000000000000000000e+00) (0, 0, 0.00000000000000000000e+00) (0, 0, 0.00000000000000000000e+00) (0, 0, 0.00000000000000000000e+00) (0, 0, 0.00000000000000000000e+00) (0, 0, 0.00000000000000000000e+00) (0, 0, 0.00000000000000000000e+00) (0, 0, 0.00000000000000000000e+00) (0, 0, 0.00000000000000000000e+00) (0, 0, 0.00000000000000000000e+00) (161, 5, 5.00000000000000000000e-01) (161, 5, 5.00000000000000000000e-01) (161, 5, 5.00000000000000000000e-01) (161, 5, 5.00000000000000000000e-01) (161, 5, 5.00000000000000000000e-01) (161, 5, 5.00000000000000000000e-01) (161, 5, 5.00000000000000000000e-01) (161, 5, 5.00000000000000000000e-01) (161, 5, 5.00000000000000000000e-01) (161, 5, 5.00000000000000000000e-01) (0, 5, 0.00000000000000000000e+00) (11, 5, 5.00000000000000000000e-01) (0, 5, 0.00000000000000000000e+00) 
connections (connected_to_neuron, weight)=(0, -2.55338460206985473633e-01) (1, 2.16312691569328308105e-01) (2, -5.00877904891967773438e+00) (3, 1.27841219305992126465e-01) (4, 4.88710552453994750977e-02) (5, 1.48074060678482055664e-01) (6, -8.37329268455505371094e-01) (7, 1.15289874374866485596e-02) (8, -2.08742991089820861816e-01) (9, 2.15682223439216613770e-01) (10, -4.99969339370727539062e+00) (11, 4.84244525432586669922e-02) (12, 1.31989985704421997070e-01) (13, 7.52528384327888488770e-02) (14, 8.24718698859214782715e-02) (15, -3.84556025266647338867e-01) (16, 1.46785467863082885742e-01) (17, 1.53723359107971191406e-01) (18, -3.87355238199234008789e-01) (19, -1.31557628512382507324e-01) (20, 2.13863760232925415039e-01) (21, 6.70085996389389038086e-02) (22, 2.63210684061050415039e-01) (23, 4.77974340319633483887e-02) (24, -5.14429140090942382812e+00) (25, -4.76953387260437011719e-01) (26, 2.59652733802795410156e-01) (27, -5.14108276367187500000e+00) (28, -4.13651764392852783203e-01) (29, -5.05458307266235351562e+00) (30, -3.42308610677719116211e-01) (31, -5.00148248672485351562e+00) (32, -5.10021829605102539062e+00) (33, 5.56012522429227828979e-03) (34, 1.73213422298431396484e-01) (35, 7.43899679183959960938e+00) (36, -1.68548583984375000000e-01) (37, 1.44589707255363464355e-01) (38, 3.12044825404882431030e-02) (39, 1.28369301557540893555e-01) (40, -5.08212661743164062500e+00) (41, -1.26284688711166381836e-01) (42, 7.58781358599662780762e-02) (43, 1.42171591520309448242e-01) (44, 3.78310456871986389160e-02) (45, 7.28635415434837341309e-02) (46, 1.32755249738693237305e-01) (47, 4.25968728959560394287e-02) (48, -5.14876937866210937500e+00) (49, 8.17158967256546020508e-02) (50, -1.29164038226008415222e-02) (51, 1.57497197389602661133e-01) (52, 9.49987769126892089844e-02) (53, 1.63580596446990966797e-01) (54, -2.78048533946275711060e-02) (55, 1.03641390800476074219e-01) (56, -5.01746320724487304688e+00) (57, 1.13271854817867279053e-01) (58, 8.81907194852828979492e-02) (59, -1.41986101865768432617e-01) (60, 2.18814849853515625000e-01) (61, 4.42750826478004455566e-02) (62, -2.77776122093200683594e-01) (63, 7.03168334439396858215e-04) (64, -5.13123083114624023438e+00) (65, 1.77445814013481140137e-01) (66, 1.20737202465534210205e-01) (67, 8.83946046233177185059e-02) (68, 1.64153993129730224609e-01) (69, -8.60681012272834777832e-02) (70, 1.20163485407829284668e-02) (71, 2.94910874217748641968e-02) (72, -5.12884950637817382812e+00) (73, 3.81545610725879669189e-02) (74, 1.08403801918029785156e-01) (75, -2.88183856755495071411e-02) (76, 3.42797711491584777832e-02) (77, -7.77863115072250366211e-02) (78, 1.22468285262584686279e-02) (79, -1.84119828045368194580e-02) (80, -5.02397871017456054688e+00) (81, -3.65797318518161773682e-02) (82, 5.68930339068174362183e-03) (83, -8.88290628790855407715e-02) (84, -1.95158403366804122925e-02) (85, -4.83489811420440673828e-01) (86, -7.19619765877723693848e-02) (87, 1.46039009094238281250e-01) (88, -5.00433588027954101562e+00) (89, -1.75671577453613281250e-02) (90, 1.30654533859342336655e-03) (91, -6.63313344120979309082e-02) (92, -8.07444099336862564087e-03) (93, 7.34942480921745300293e-02) (94, -1.28113314509391784668e-01) (95, -2.09158703684806823730e-01) (96, -5.09455347061157226562e+00) (97, 4.54363375902175903320e-02) (98, 1.78050726652145385742e-01) (99, 5.02017028629779815674e-02) (100, -3.72602753341197967529e-02) (101, 4.33134362101554870605e-02) (102, 1.47204518318176269531e-01) (103, -3.00385113805532455444e-02) (104, -5.02659225463867187500e+00) (105, 3.29103879630565643311e-02) (106, 3.13832215033471584320e-03) (107, 1.20523914694786071777e-01) (108, 1.64626061916351318359e-01) (109, -2.69441325217485427856e-02) (110, -3.64858545362949371338e-02) (111, 1.18654996156692504883e-01) (112, -5.10371160507202148438e+00) (113, 2.34413333237171173096e-02) (114, 1.59949794411659240723e-01) (115, -1.13210622221231460571e-02) (116, 3.57466973364353179932e-02) (117, -2.28156689554452896118e-02) (118, -2.61704087257385253906e-01) (119, -6.67024925351142883301e-02) (120, -5.09440517425537109375e+00) (121, 1.27200946211814880371e-01) (122, 1.78712889552116394043e-01) (123, 6.41259774565696716309e-02) (124, -2.45478913187980651855e-01) (125, -2.03957939147949218750e+00) (126, -9.60826054215431213379e-02) (127, 5.00915870070457458496e-02) (128, -5.00566768646240234375e+00) (129, 3.12184970825910568237e-02) (130, -4.82418909668922424316e-02) (131, 1.27760823816061019897e-02) (132, 3.92364449799060821533e-02) (133, 3.72863523662090301514e-02) (134, -7.24110543727874755859e-01) (135, -2.86413077265024185181e-02) (136, -5.01572799682617187500e+00) (137, 5.22941797971725463867e-02) (138, 8.62647965550422668457e-02) (139, 4.83531877398490905762e-02) (140, -1.03843852877616882324e-01) (141, -7.62620091438293457031e-01) (142, -8.52734386920928955078e-01) (143, 5.60961253941059112549e-02) (144, -4.99883460998535156250e+00) (145, 9.55333411693572998047e-02) (146, 1.13873623311519622803e-01) (147, 7.05214217305183410645e-02) (148, 1.32241308689117431641e-01) (149, 3.97680141031742095947e-02) (150, -1.05003722012042999268e-01) (151, -1.98499150574207305908e-02) (152, -5.16116333007812500000e+00) (153, -3.34676653146743774414e-02) (154, 2.89207883179187774658e-02) (155, 4.43891948089003562927e-03) (156, -1.32070109248161315918e-02) (157, 3.28807793557643890381e-02) (158, -1.95804581046104431152e-01) (159, -2.19700131565332412720e-02) (160, 1.48477733135223388672e-01) (0, 4.14844274520874023438e-01) (1, -2.33094692230224609375e-01) (2, 7.30232238769531250000e+00) (3, -1.22536094859242439270e-02) (4, -1.75658538937568664551e-02) (5, 9.16250608861446380615e-03) (6, 1.03317648172378540039e-01) (7, -7.70273134112358093262e-02) (8, 2.89915025234222412109e-01) (9, -1.28486827015876770020e-01) (10, 7.25815343856811523438e+00) (11, -3.53198610246181488037e-02) (12, -1.11726708710193634033e-01) (13, -6.25999867916107177734e-02) (14, -6.85347318649291992188e-02) (15, -7.55756795406341552734e-02) (16, -1.86748370528221130371e-01) (17, -1.34656906127929687500e-01) (18, 4.80395942926406860352e-01) (19, 2.41038158535957336426e-01) (20, -2.41335377097129821777e-01) (21, -1.83805334381759166718e-03) (22, -5.04788255691528320312e+00) (23, -1.45612314343452453613e-01) (24, 7.40533685684204101562e+00) (25, 6.53668224811553955078e-01) (26, -2.35338076949119567871e-01) (27, 7.30532979965209960938e+00) (28, 7.30597674846649169922e-01) (29, 7.26409244537353515625e+00) (30, 3.64110857248306274414e-01) (31, 7.30722951889038085938e+00) (32, 7.27279281616210937500e+00) (33, -8.76359716057777404785e-02) (34, -1.79598182439804077148e-01) (35, -5.03863239288330078125e+00) (36, 4.43709529936313629150e-02) (37, 1.20779819786548614502e-01) (38, -1.29385367035865783691e-01) (39, -1.05428382754325866699e-01) (40, 7.36328077316284179688e+00) (41, -2.36982516944408416748e-02) (42, -4.68016974627971649170e-02) (43, -1.93660721182823181152e-01) (44, 1.01086040958762168884e-02) (45, -7.45936483144760131836e-02) (46, -1.76850065588951110840e-01) (47, -2.25021410733461380005e-02) (48, 7.35242176055908203125e+00) (49, -1.31773173809051513672e-01) (50, -1.02282665669918060303e-01) (51, -3.37802805006504058838e-03) (52, -7.60823041200637817383e-02) (53, 1.99039988219738006592e-02) (54, 1.32757890969514846802e-02) (55, -2.99999117851257324219e-02) (56, 7.29571533203125000000e+00) (57, -5.49338338896632194519e-03) (58, 5.72143979370594024658e-02) (59, 9.42742675542831420898e-02) (60, -1.41689956188201904297e-01) (61, 5.35119697451591491699e-02) (62, -5.62089048326015472412e-02) (63, -9.38349496573209762573e-03) (64, 7.29930162429809570312e+00) (65, -9.49295312166213989258e-02) (66, 2.71312054246664047241e-02) (67, -1.47646456956863403320e-01) (68, -7.57019221782684326172e-02) (69, 3.12281809747219085693e-02) (70, -5.07718808948993682861e-02) (71, 7.78627544641494750977e-02) (72, 7.40573930740356445312e+00) (73, -7.98132196068763732910e-02) (74, 8.05377513170242309570e-02) (75, -4.63176481425762176514e-02) (76, -1.02491706609725952148e-01) (77, -6.72411024570465087891e-02) (78, 6.99898079037666320801e-02) (79, -4.76351901888847351074e-02) (80, 7.29269933700561523438e+00) (81, -4.22497168183326721191e-02) (82, 3.16129699349403381348e-02) (83, 1.42795145511627197266e-01) (84, -1.20325714349746704102e-01) (85, 1.02331006526947021484e+00) (86, 2.62665115296840667725e-02) (87, -6.08830377459526062012e-02) (88, 7.31456899642944335938e+00) (89, -5.38641065359115600586e-02) (90, -3.48920449614524841309e-02) (91, -6.06505833566188812256e-02) (92, -4.06537987291812896729e-02) (93, -4.10357452929019927979e-02) (94, 1.11088305711746215820e-01) (95, 1.19644865393638610840e-01) (96, 7.25673913955688476562e+00) (97, -5.04369884729385375977e-02) (98, 6.31698518991470336914e-02) (99, -8.54130685329437255859e-02) (100, -4.09313328564167022705e-02) (101, -1.03144831955432891846e-01) (102, -6.52369335293769836426e-02) (103, -2.90415827184915542603e-02) (104, 7.35934400558471679688e+00) (105, -7.14687909930944442749e-03) (106, -1.27417936921119689941e-01) (107, -7.83011764287948608398e-02) (108, -7.95026794075965881348e-02) (109, -1.04076713323593139648e-02) (110, -5.56668005883693695068e-02) (111, -1.01242242380976676941e-02) (112, 7.35453557968139648438e+00) (113, -7.51895010471343994141e-02) (114, -5.61771914362907409668e-02) (115, 8.33669379353523254395e-02) (116, 5.13712950050830841064e-02) (117, -3.47377881407737731934e-02) (118, 8.89390632510185241699e-02) (119, -2.56993807852268218994e-03) (120, 7.37697792053222656250e+00) (121, -3.49420830607414245605e-02) (122, -1.25810563564300537109e-01) (123, -1.10864214599132537842e-01) (124, 4.41714487969875335693e-02) (125, 1.19023382663726806641e-01) (126, 7.26350322365760803223e-02) (127, 1.05036990717053413391e-02) (128, 7.38931989669799804688e+00) (129, -1.51411266997456550598e-02) (130, 9.53644290566444396973e-02) (131, 1.05452202260494232178e-01) (132, -1.03651598095893859863e-01) (133, -1.52831420302391052246e-01) (134, 9.67203229665756225586e-02) (135, 7.02299177646636962891e-02) (136, 7.36128568649291992188e+00) (137, -2.66151148825883865356e-02) (138, -4.74636368453502655029e-02) (139, -6.07047602534294128418e-02) (140, 9.14991274476051330566e-02) (141, -5.09635964408516883850e-03) (142, 1.59413588047027587891e+00) (143, -1.49307146668434143066e-01) (144, 7.26519107818603515625e+00) (145, -1.87749564647674560547e-02) (146, -1.47923022508621215820e-01) (147, 3.84171791374683380127e-02) (148, 1.82574614882469177246e-02) (149, -1.00696511566638946533e-01) (150, -6.43101558089256286621e-02) (151, -6.35525444522500038147e-03) (152, 7.43694782257080078125e+00) (153, -6.98622018098831176758e-02) (154, -5.84342665970325469971e-02) (155, -1.92888379096984863281e-02) (156, 3.15528512001037597656e-02) (157, -1.15024581551551818848e-01) (158, 1.05883739888668060303e-01) (159, 3.68303060531616210938e-02) (160, -4.79407720267772674561e-02) (0, -2.66400873661041259766e-01) (1, 1.40112325549125671387e-01) (2, -5.06324863433837890625e+00) (3, 1.48648872971534729004e-01) (4, 1.20748486369848251343e-02) (5, -3.84694291278719902039e-03) (6, -6.70853435993194580078e-01) (7, 1.45559847354888916016e-01) (8, -3.70522171258926391602e-01) (9, 1.66390821337699890137e-01) (10, -5.11249828338623046875e+00) (11, -1.42886675894260406494e-02) (12, 2.83801406621932983398e-02) (13, 1.13780103623867034912e-01) (14, 4.30485941469669342041e-02) (15, -2.93559998273849487305e-01) (16, 1.89696609973907470703e-01) (17, 5.58445155620574951172e-02) (18, -3.48246663808822631836e-01) (19, -6.32099211215972900391e-02) (20, 1.85522302985191345215e-01) (21, 1.07692554593086242676e-01) (22, 2.90830135345458984375e-01) (23, 1.69440895318984985352e-01) (24, -5.17981815338134765625e+00) (25, -4.44957941770553588867e-01) (26, 1.94999009370803833008e-01) (27, -5.17145252227783203125e+00) (28, -3.04757416248321533203e-01) (29, -5.00473785400390625000e+00) (30, -2.54091829061508178711e-01) (31, -5.10365056991577148438e+00) (32, -5.12657356262207031250e+00) (33, 3.93071919679641723633e-02) (34, 8.81016701459884643555e-02) (35, 7.39236068725585937500e+00) (36, -9.35571826994419097900e-03) (37, 5.16659915447235107422e-02) (38, 8.62311273813247680664e-02) (39, 1.10082454979419708252e-01) (40, -5.00898933410644531250e+00) (41, 4.15579043328762054443e-02) (42, 1.97117388248443603516e-01) (43, 7.88560360670089721680e-02) (44, 7.11046308279037475586e-02) (45, 1.55268892645835876465e-01) (46, 1.76012068986892700195e-01) (47, 8.78789797425270080566e-02) (48, -5.00246715545654296875e+00) (49, 1.21911391615867614746e-01) (50, 3.40504571795463562012e-02) (51, 5.94550818204879760742e-02) (52, 2.26091131567955017090e-01) (53, 3.17172259092330932617e-02) (54, -8.45353119075298309326e-03) (55, 1.72434613108634948730e-01) (56, -5.12054061889648437500e+00) (57, 1.03714689612388610840e-01) (58, 1.14748694002628326416e-01) (59, -1.30366533994674682617e-01) (60, 2.33634173870086669922e-01) (61, 1.33479267358779907227e-01) (62, -9.88921746611595153809e-02) (63, 1.98261007666587829590e-01) (64, -5.17084360122680664062e+00) (65, 2.02052190899848937988e-01) (66, 6.81967288255691528320e-02) (67, 1.54109835624694824219e-01) (68, 1.01595312356948852539e-01) (69, -9.97994840145111083984e-02) (70, 5.71921914815902709961e-02) (71, 5.08804619312286376953e-02) (72, -5.17018270492553710938e+00) (73, -1.18363080546259880066e-02) (74, 3.15545685589313507080e-02) (75, 9.04071033000946044922e-02) (76, 5.08614592254161834717e-02) (77, -1.00276626646518707275e-01) (78, 1.73235997557640075684e-01) (79, -5.84558732807636260986e-02) (80, -5.14550828933715820312e+00) (81, -8.68748873472213745117e-02) (82, 2.22532972693443298340e-02) (83, 2.85845994949340820312e-02) (84, 1.94135420024394989014e-02) (85, -9.41204607486724853516e-01) (86, -8.97710211575031280518e-03) (87, 5.74133098125457763672e-02) (88, -5.14931488037109375000e+00) (89, 5.19330166280269622803e-02) (90, -8.13227072358131408691e-02) (91, 1.47181181237101554871e-02) (92, 8.57284571975469589233e-03) (93, 1.40681162476539611816e-01) (94, 3.74844931066036224365e-02) (95, -2.78448373079299926758e-01) (96, -5.03881549835205078125e+00) (97, 6.32208213210105895996e-02) (98, -1.10725611448287963867e-02) (99, 3.33902463316917419434e-02) (100, -2.86511443555355072021e-02) (101, 1.19602262973785400391e-01) (102, 1.30980581045150756836e-01) (103, -1.08170546591281890869e-01) (104, -5.16891813278198242188e+00) (105, -5.91377131640911102295e-02) (106, 1.07362553477287292480e-01) (107, -2.87585202604532241821e-02) (108, 6.06261305510997772217e-02) (109, 6.22157426550984382629e-03) (110, -2.11987178772687911987e-02) (111, 1.11998051404953002930e-01) (112, -5.04896211624145507812e+00) (113, 7.46586322784423828125e-02) (114, 1.20775498449802398682e-01) (115, -1.04396976530551910400e-01) (116, 1.86818148940801620483e-02) (117, 5.72725059464573860168e-03) (118, -7.69761130213737487793e-02) (119, -7.46627211570739746094e-01) (120, -5.15882301330566406250e+00) (121, 1.14599511027336120605e-01) (122, 9.23936963081359863281e-02) (123, 3.74546721577644348145e-02) (124, -4.76874709129333496094e-01) (125, -2.05582618713378906250e+00) (126, 3.31810899078845977783e-02) (127, -5.36546185612678527832e-02) (128, -5.00412988662719726562e+00) (129, -3.10683660209178924561e-02) (130, 1.54954679310321807861e-02) (131, 4.37112115323543548584e-02) (132, -6.72492757439613342285e-02) (133, 9.81047600507736206055e-02) (134, -1.51862752437591552734e+00) (135, -9.69814434647560119629e-02) (136, -5.01828527450561523438e+00) (137, -4.09552007913589477539e-02) (138, 5.88356517255306243896e-02) (139, -3.89258861541748046875e-02) (140, 3.39697413146495819092e-02) (141, -8.74797880649566650391e-01) (142, -9.15150344371795654297e-01) (143, 1.41279935836791992188e-01) (144, -5.04068803787231445312e+00) (145, -3.55304852128028869629e-02) (146, 5.51595576107501983643e-02) (147, -7.26924976333975791931e-03) (148, 9.07105281949043273926e-02) (149, 2.94996127486228942871e-02) (150, 7.40344375371932983398e-02) (151, -1.00930139422416687012e-01) (152, -5.16781044006347656250e+00) (153, 5.92513233423233032227e-02) (154, 6.45047724246978759766e-02) (155, 4.45348359644412994385e-02) (156, 6.32652565836906433105e-02) (157, 8.42489954084157943726e-03) (158, -3.10912370681762695312e-01) (159, 3.16998139023780822754e-02) (160, 1.37048423290252685547e-01) (0, 3.46640348434448242188e-01) (1, -7.77856409549713134766e-02) (2, 7.38119745254516601562e+00) (3, -1.36670365929603576660e-01) (4, -1.08463548123836517334e-01) (5, 6.10561929643154144287e-02) (6, -1.31380157545208930969e-02) (7, -2.69916076213121414185e-02) (8, 2.73785620927810668945e-01) (9, -6.59630224108695983887e-02) (10, 7.32827806472778320312e+00) (11, -1.39935344457626342773e-01) (12, -1.66725546121597290039e-01) (13, -1.02360323071479797363e-01) (14, 1.62565950304269790649e-02) (15, 5.72020793333649635315e-03) (16, -7.37623125314712524414e-02) (17, -1.23178727924823760986e-01) (18, 5.28866827487945556641e-01) (19, 1.49613648653030395508e-01) (20, -2.49255388975143432617e-01) (21, -3.68474200367927551270e-02) (22, -5.14628267288208007812e+00) (23, -6.08133189380168914795e-02) (24, 7.43907690048217773438e+00) (25, 7.86736071109771728516e-01) (26, -7.73640632629394531250e-01) (27, 7.33708190917968750000e+00) (28, 7.88987338542938232422e-01) (29, 7.30337333679199218750e+00) (30, 3.81224095821380615234e-01) (31, 7.36798334121704101562e+00) (32, 7.41899824142456054688e+00) (33, 8.35243798792362213135e-03) (34, -2.48838644474744796753e-02) (35, -5.17054510116577148438e+00) (36, 2.08019569516181945801e-01) (37, 1.05341553688049316406e-01) (38, 5.56137925013899803162e-03) (39, 7.50625059008598327637e-02) (40, 7.33864021301269531250e+00) (41, -1.27138439565896987915e-02) (42, -1.40913546085357666016e-01) (43, -5.49058280885219573975e-02) (44, -4.18946035206317901611e-02) (45, -1.08329184353351593018e-01) (46, -1.78768031764775514603e-03) (47, -2.31030285358428955078e-02) (48, 7.33172798156738281250e+00) (49, -5.34444563090801239014e-02) (50, 6.85558989644050598145e-02) (51, -6.55780732631683349609e-02) (52, -8.75584408640861511230e-02) (53, -1.39410689473152160645e-01) (54, -1.30538925528526306152e-01) (55, -1.07109721284359693527e-04) (56, 7.27413463592529296875e+00) (57, 1.28165753558278083801e-02) (58, -8.23859125375747680664e-02) (59, -5.82397915422916412354e-02) (60, -5.36823570728302001953e-01) (61, -8.35728198289871215820e-02) (62, 3.61520424485206604004e-02) (63, 5.08549213409423828125e-02) (64, 7.26641941070556640625e+00) (65, -1.83906909078359603882e-02) (66, 9.53333452343940734863e-02) (67, -6.51693791151046752930e-02) (68, -5.02083674073219299316e-02) (69, 5.12973628938198089600e-02) (70, 5.42060323059558868408e-02) (71, 8.07283371686935424805e-02) (72, 7.39972734451293945312e+00) (73, -1.06990233063697814941e-01) (74, -2.41288859397172927856e-02) (75, 6.88237175345420837402e-02) (76, -1.68262243270874023438e-01) (77, -9.23446472734212875366e-03) (78, 2.14270111173391342163e-02) (79, 3.80501523613929748535e-02) (80, 7.38024425506591796875e+00) (81, 7.05883800983428955078e-02) (82, -6.02729357779026031494e-02) (83, 1.95081606507301330566e-02) (84, 4.72093410789966583252e-02) (85, 9.64417397975921630859e-01) (86, -8.18902254104614257812e-02) (87, -7.81260579824447631836e-02) (88, 7.27313280105590820312e+00) (89, -1.01515717804431915283e-01) (90, -4.28661555051803588867e-02) (91, -6.98329955339431762695e-02) (92, -1.09531702473759651184e-02) (93, 7.77753069996833801270e-02) (94, 1.37863710522651672363e-01) (95, 7.49573558568954467773e-02) (96, 7.34283494949340820312e+00) (97, 3.88381592929363250732e-02) (98, -4.17983457446098327637e-02) (99, 6.74353539943695068359e-03) (100, 4.27422598004341125488e-02) (101, -9.31873172521591186523e-02) (102, -7.05758249387145042419e-03) (103, 1.32374400272965431213e-02) (104, 7.28473472595214843750e+00) (105, -3.19993346929550170898e-02) (106, -6.69781863689422607422e-02) (107, -4.31113541126251220703e-02) (108, -5.29644079506397247314e-02) (109, -3.66532169282436370850e-02) (110, -9.80435237288475036621e-02) (111, -6.47235512733459472656e-02) (112, 7.43160057067871093750e+00) (113, -7.68256746232509613037e-03) (114, -6.61502184811979532242e-04) (115, 1.12518288195133209229e-01) (116, 6.74847140908241271973e-02) (117, 3.84122729301452636719e-02) (118, 5.16214728355407714844e-01) (119, -4.48209717869758605957e-02) (120, 7.41781139373779296875e+00) (121, -1.08812861144542694092e-01) (122, -1.00227847695350646973e-01) (123, -4.27819192409515380859e-02) (124, 2.22063437104225158691e-02) (125, 1.41061842441558837891e-01) (126, 1.49441495537757873535e-01) (127, 8.73252674937248229980e-02) (128, 7.26989126205444335938e+00) (129, -5.24860434234142303467e-02) (130, 6.43426030874252319336e-02) (131, 8.44321325421333312988e-02) (132, -7.55553646013140678406e-03) (133, -1.10276401042938232422e-01) (134, 1.60568177700042724609e-01) (135, 7.79914334416389465332e-02) (136, 7.36636734008789062500e+00) (137, 3.41774336993694305420e-02) (138, -1.04395925998687744141e-01) (139, -2.45915856212377548218e-02) (140, 1.47294536232948303223e-01) (141, 4.91658560931682586670e-02) (142, 1.54342722892761230469e+00) (143, -4.57225888967514038086e-02) (144, 7.37753105163574218750e+00) (145, -5.97653016448020935059e-02) (146, 2.58088074624538421631e-02) (147, -5.00577725470066070557e-02) (148, 4.25978526473045349121e-02) (149, -2.15297006070613861084e-02) (150, 4.96386783197522163391e-03) (151, 7.14396089315414428711e-02) (152, 7.25462770462036132812e+00) (153, -2.75375191122293472290e-02) (154, -1.12819984555244445801e-01) (155, -3.17616946995258331299e-02) (156, 6.51732236146926879883e-02) (157, 1.16927713155746459961e-01) (158, -1.22301587834954261780e-02) (159, -4.89785037934780120850e-02) (160, -8.37145373225212097168e-02) (0, 3.60033512115478515625e-01) (1, -8.34312438964843750000e-02) (2, 7.39565563201904296875e+00) (3, -1.25004902482032775879e-01) (4, -1.37216731905937194824e-01) (5, -3.16823348402976989746e-02) (6, 1.13001182675361633301e-01) (7, 1.39445438981056213379e-02) (8, 3.23457121849060058594e-01) (9, -2.30663478374481201172e-01) (10, 7.33916378021240234375e+00) (11, -4.71595581620931625366e-03) (12, -7.52702131867408752441e-02) (13, -7.32964500784873962402e-02) (14, -7.00527355074882507324e-02) (15, 5.23032173514366149902e-02) (16, -3.94242703914642333984e-02) (17, -1.49888157844543457031e-01) (18, 5.68056821823120117188e-01) (19, 3.17107975482940673828e-01) (20, -1.85123652219772338867e-01) (21, -7.50732645392417907715e-02) (22, -5.05270624160766601562e+00) (23, -9.27068963646888732910e-02) (24, 7.29394769668579101562e+00) (25, 6.12294197082519531250e-01) (26, -2.28433981537818908691e-01) (27, 7.28670358657836914062e+00) (28, 6.37721538543701171875e-01) (29, 7.29429721832275390625e+00) (30, 5.64321041107177734375e-01) (31, 7.44111824035644531250e+00) (32, 7.25394535064697265625e+00) (33, -1.08137749135494232178e-01) (34, -1.51667162775993347168e-01) (35, -5.17713069915771484375e+00) (36, 1.05116546154022216797e-01) (37, -1.04355357587337493896e-01) (38, 2.61382460594177246094e-02) (39, -4.67863455414772033691e-02) (40, 7.26784229278564453125e+00) (41, 4.04529273509979248047e-03) (42, -1.49697646498680114746e-01) (43, -4.23338934779167175293e-02) (44, 7.80664617195725440979e-03) (45, -1.13857546821236610413e-02) (46, -1.27637490630149841309e-01) (47, -9.07051414251327514648e-02) (48, 7.42454195022583007812e+00) (49, 1.86188966035842895508e-02) (50, -1.39297530055046081543e-01) (51, -4.87580299377441406250e-02) (52, -2.12444111704826354980e-01) (53, -2.66009401530027389526e-02) (54, 2.37980186939239501953e-02) (55, -7.77510330080986022949e-02) (56, 7.41250228881835937500e+00) (57, -8.46953392028808593750e-02) (58, -9.16264485567808151245e-03) (59, -6.80897459387779235840e-02) (60, -1.16144843399524688721e-01) (61, -1.26700147986412048340e-01) (62, -9.84090939164161682129e-02) (63, -2.88887508213520050049e-02) (64, 7.29858779907226562500e+00) (65, -1.14629924297332763672e-01) (66, 2.48182080686092376709e-02) (67, -2.60997358709573745728e-02) (68, -1.19216352701187133789e-01) (69, -2.36910730600357055664e-02) (70, -7.04612806439399719238e-02) (71, -1.15882456302642822266e-02) (72, 7.37608051300048828125e+00) (73, -7.32600106857717037201e-04) (74, -9.42451506853103637695e-02) (75, -1.28084212541580200195e-01) (76, -1.42322257161140441895e-01) (77, -1.80993508547544479370e-02) (78, -2.69846934825181961060e-02) (79, -4.30986694991588592529e-02) (80, 7.30400228500366210938e+00) (81, 3.50264236330986022949e-02) (82, 4.12989743053913116455e-02) (83, 1.77364777773618698120e-02) (84, -8.48884135484695434570e-02) (85, 1.03613924980163574219e+00) (86, 5.54124489426612854004e-02) (87, -1.08658641576766967773e-01) (88, 7.25537014007568359375e+00) (89, -1.06775984168052673340e-01) (90, -5.87566941976547241211e-02) (91, 2.49482337385416030884e-02) (92, -6.00527785718441009521e-02) (93, -9.47170630097389221191e-02) (94, -4.58696447312831878662e-02) (95, 8.36858004331588745117e-02) (96, 7.35721111297607421875e+00) (97, -1.12986573949456214905e-02) (98, -3.21941561996936798096e-02) (99, -1.34689984843134880066e-02) (100, -5.95922470092773437500e-02) (101, -1.07076810672879219055e-02) (102, -1.02132223546504974365e-01) (103, 1.00523173809051513672e-01) (104, 7.32919597625732421875e+00) (105, 1.43266133964061737061e-02) (106, -2.41860304959118366241e-03) (107, 2.72899344563484191895e-02) (108, 1.01152677088975906372e-02) (109, 2.88826841861009597778e-02) (110, -9.33560729026794433594e-02) (111, -9.54781547188758850098e-02) (112, 7.27110242843627929688e+00) (113, 9.14273932576179504395e-02) (114, -8.03148448467254638672e-02) (115, 2.53734197467565536499e-02) (116, 1.44292572513222694397e-02) (117, -4.70201186835765838623e-02) (118, 1.88725173473358154297e-01) (119, 1.08166188001632690430e-01) (120, 7.34084367752075195312e+00) (121, -1.54578536748886108398e-01) (122, -1.08584769070148468018e-01) (123, 2.10819486528635025024e-02) (124, 4.57792580127716064453e-02) (125, 1.89453065395355224609e-01) (126, 1.34648027596995234489e-04) (127, 1.22082360088825225830e-01) (128, 7.28399181365966796875e+00) (129, 3.37399095296859741211e-02) (130, 9.47842448949813842773e-02) (131, -2.76480112224817276001e-02) (132, -1.97772984392940998077e-03) (133, -1.55148655176162719727e-01) (134, 1.30171060562133789062e-01) (135, -3.85125204920768737793e-02) (136, 7.37415695190429687500e+00) (137, -7.45488703250885009766e-02) (138, -1.86730884015560150146e-02) (139, 3.92172299325466156006e-02) (140, 8.85441452264785766602e-02) (141, 1.57467797398567199707e-01) (142, 6.80562496185302734375e-01) (143, -4.86896932125091552734e-02) (144, 7.42090988159179687500e+00) (145, -3.21613140404224395752e-02) (146, -8.16122516989707946777e-02) (147, -2.84169521182775497437e-02) (148, -2.19158716499805450439e-02) (149, -1.30157575011253356934e-01) (150, -1.28964055329561233521e-02) (151, -5.07354475557804107666e-02) (152, 7.28785037994384765625e+00) (153, -1.22265808749943971634e-03) (154, 3.22230756282806396484e-02) (155, 1.92702077329158782959e-02) (156, -4.42744828760623931885e-02) (157, -1.00013434886932373047e-01) (158, 6.82265385985374450684e-02) (159, 4.81626801192760467529e-02) (160, -1.11536227632313966751e-03) (0, -2.78717428445816040039e-01) (1, 2.37846985459327697754e-01) (2, -5.08283996582031250000e+00) (3, 1.16748377680778503418e-01) (4, -4.02243286371231079102e-02) (5, 1.14168234169483184814e-01) (6, -8.18036139011383056641e-01) (7, 2.26754713803529739380e-02) (8, -2.62553274631500244141e-01) (9, 2.67117172479629516602e-01) (10, -5.02512264251708984375e+00) (11, 1.01156577467918395996e-01) (12, 1.15249872207641601562e-01) (13, 1.00071996450424194336e-01) (14, 9.78377535939216613770e-02) (15, -8.85420218110084533691e-02) (16, 3.54331289418041706085e-03) (17, 2.71285958588123321533e-02) (18, -2.82512873411178588867e-01) (19, -2.37008273601531982422e-01) (20, 2.08888337016105651855e-01) (21, 1.00887916982173919678e-01) (22, 1.92026451230049133301e-01) (23, 7.42393955588340759277e-02) (24, -5.07723617553710937500e+00) (25, -4.90321636199951171875e-01) (26, 2.42300122976303100586e-01) (27, -5.05385971069335937500e+00) (28, -3.70149254798889160156e-01) (29, -5.15371274948120117188e+00) (30, -2.85007327795028686523e-01) (31, -5.18135881423950195312e+00) (32, -5.17781352996826171875e+00) (33, -2.77147311717271804810e-02) (34, 1.73284500837326049805e-01) (35, 7.27230596542358398438e+00) (36, -5.52072376012802124023e-02) (37, -2.70864367485046386719e-02) (38, 4.46524322032928466797e-02) (39, 3.90172116458415985107e-02) (40, -5.00236797332763671875e+00) (41, -1.01485595107078552246e-01) (42, 2.71665155887603759766e-01) (43, 1.82423993945121765137e-01) (44, 4.47128638625144958496e-02) (45, 4.48772944509983062744e-02) (46, 1.49546414613723754883e-01) (47, 1.93879500031471252441e-01) (48, -5.12401199340820312500e+00) (49, 2.50221267342567443848e-02) (50, -2.22048256546258926392e-02) (51, 1.60012289881706237793e-01) (52, 7.11441263556480407715e-02) (53, 8.31079035997390747070e-02) (54, 1.84188820421695709229e-02) (55, 1.46841555833816528320e-01) (56, -5.11130380630493164062e+00) (57, 1.34512051939964294434e-01) (58, 3.74863445758819580078e-02) (59, -9.38638001680374145508e-02) (60, 8.16431865096092224121e-02) (61, 2.31999620795249938965e-01) (62, -4.78995554149150848389e-02) (63, 5.28491511940956115723e-02) (64, -5.16026592254638671875e+00) (65, 1.72636672854423522949e-01) (66, 8.82384274154901504517e-03) (67, 2.88312323391437530518e-02) (68, 1.71293631196022033691e-01) (69, -2.84714680165052413940e-02) (70, 5.48607409000396728516e-02) (71, 1.18789508938789367676e-01) (72, -5.00590276718139648438e+00) (73, 4.66814357787370681763e-03) (74, 5.83208911120891571045e-02) (75, 1.29548981785774230957e-01) (76, 1.51892840862274169922e-01) (77, -9.04456153512001037598e-02) (78, 1.21896781027317047119e-01) (79, -7.05547854304313659668e-02) (80, -5.09437179565429687500e+00) (81, 5.75405284762382507324e-02) (82, 1.55230820178985595703e-01) (83, -9.66368429362773895264e-03) (84, -1.12680755555629730225e-02) (85, -1.01699209213256835938e+00) (86, -9.30133685469627380371e-02) (87, 8.20680186152458190918e-02) (88, -5.16708898544311523438e+00) (89, 7.80306011438369750977e-02) (90, 8.96472111344337463379e-02) (91, -9.61081609129905700684e-02) (92, 5.90254291892051696777e-02) (93, 1.12747594714164733887e-01) (94, -1.28684183582663536072e-02) (95, -1.71093791723251342773e-01) (96, -5.07648468017578125000e+00) (97, -3.37518006563186645508e-02) (98, 1.36415407061576843262e-01) (99, 7.54104629158973693848e-02) (100, 7.15581029653549194336e-02) (101, 2.56501026451587677002e-02) (102, 5.93116730451583862305e-02) (103, -1.66428804397583007812e-01) (104, -5.08114624023437500000e+00) (105, -1.14024952054023742676e-01) (106, 1.05957649648189544678e-01) (107, -3.37757766246795654297e-02) (108, 1.39909666031599044800e-02) (109, -2.07161176949739456177e-02) (110, -3.10562606900930404663e-02) (111, 1.16499073803424835205e-01) (112, -5.00336360931396484375e+00) (113, 9.89541318267583847046e-03) (114, 6.19401782751083374023e-02) (115, -7.40398168563842773438e-02) (116, 1.17041561752557754517e-02) (117, 1.08602754771709442139e-02) (118, -5.52791617810726165771e-02) (119, -1.87949389219284057617e-02) (120, -5.18135356903076171875e+00) (121, 3.04717291146516799927e-02) (122, 1.58905625343322753906e-01) (123, 5.94180338084697723389e-02) (124, -8.72010409832000732422e-01) (125, -2.04025244712829589844e+00) (126, -6.67587593197822570801e-02) (127, 1.06848664581775665283e-02) (128, -5.10175085067749023438e+00) (129, 7.79934506863355636597e-03) (130, -7.97731652855873107910e-02) (131, -3.85202914476394653320e-02) (132, 1.86609998345375061035e-02) (133, 1.53834506869316101074e-01) (134, -1.46101546287536621094e+00) (135, 5.35977743566036224365e-02) (136, -5.05579423904418945312e+00) (137, 4.54941578209400177002e-02) (138, 3.50489690899848937988e-02) (139, 5.90597204864025115967e-02) (140, 1.09535316005349159241e-03) (141, -9.61319983005523681641e-01) (142, -8.64464282989501953125e-01) (143, 1.35365337133407592773e-01) (144, -5.05840015411376953125e+00) (145, -3.14728245139122009277e-02) (146, 1.26011148095130920410e-01) (147, -1.30867706611752510071e-02) (148, 3.89110557734966278076e-02) (149, 6.68356493115425109863e-02) (150, 2.45924815535545349121e-02) (151, 2.27118749171495437622e-03) (152, -5.03082466125488281250e+00) (153, 7.63212665915489196777e-02) (154, 2.87931188941001892090e-02) (155, 9.13292467594146728516e-02) (156, -8.43781158328056335449e-02) (157, 5.09692542254924774170e-02) (158, -1.59113883972167968750e-01) (159, -9.51741635799407958984e-03) (160, 1.43147051334381103516e-01) (0, 3.63534122705459594727e-01) (1, -5.33363297581672668457e-02) (2, 7.25590944290161132812e+00) (3, -1.03682577610015869141e-01) (4, -3.44005487859249114990e-02) (5, 7.65422731637954711914e-02) (6, 7.02355103567242622375e-03) (7, -7.69658908247947692871e-02) (8, 2.44720682501792907715e-01) (9, -1.96256384253501892090e-01) (10, 7.41809463500976562500e+00) (11, -6.83536753058433532715e-02) (12, -4.42915186285972595215e-02) (13, -2.85908430814743041992e-02) (14, -1.37107923626899719238e-01) (15, 7.89403468370437622070e-02) (16, -1.33245721459388732910e-01) (17, -6.16093315184116363525e-02) (18, 5.34728646278381347656e-01) (19, 8.73899459838867187500e-01) (20, -3.45463246107101440430e-01) (21, 5.72116822004318237305e-02) (22, -5.05800008773803710938e+00) (23, -3.87739576399326324463e-02) (24, 7.27926349639892578125e+00) (25, 7.16412901878356933594e-01) (26, -7.31358170509338378906e-01) (27, 7.39734411239624023438e+00) (28, 6.26798272132873535156e-01) (29, 7.28067874908447265625e+00) (30, 4.50794756412506103516e-01) (31, 7.42268800735473632812e+00) (32, 7.42783355712890625000e+00) (33, -5.97486719489097595215e-02) (34, -1.30842775106430053711e-01) (35, -5.07526350021362304688e+00) (36, 2.26450920104980468750e-01) (37, 3.05060502141714096069e-02) (38, 1.97385381907224655151e-02) (39, 1.81666761636734008789e-02) (40, 7.35940599441528320312e+00) (41, 9.06338095664978027344e-02) (42, -1.31817385554313659668e-01) (43, -1.21252320706844329834e-01) (44, 4.94594611227512359619e-02) (45, -1.41114760190248489380e-02) (46, -1.72082215547561645508e-01) (47, -6.95468708872795104980e-02) (48, 7.26795673370361328125e+00) (49, -1.77062582224607467651e-02) (50, -5.40999844670295715332e-02) (51, -1.36780917644500732422e-01) (52, -1.47341117262840270996e-01) (53, -1.72149732708930969238e-01) (54, 7.89690203964710235596e-03) (55, -1.20604839175939559937e-02) (56, 7.38390350341796875000e+00) (57, -1.60717812832444906235e-03) (58, -3.71357537806034088135e-02) (59, 7.27311372756958007812e-02) (60, -4.69827175140380859375e-01) (61, 3.92508804798126220703e-02) (62, 4.36384119093418121338e-02) (63, 1.77132636308670043945e-02) (64, 7.33904123306274414062e+00) (65, -1.21179729700088500977e-01) (66, -2.29680631309747695923e-02) (67, -2.45799362659454345703e-01) (68, -2.69012954086065292358e-02) (69, -8.74169319868087768555e-02) (70, 2.83761788159608840942e-02) (71, -7.58860930800437927246e-02) (72, 7.38762950897216796875e+00) (73, -9.15779769420623779297e-02) (74, -3.95961478352546691895e-03) (75, 6.70571252703666687012e-02) (76, -8.03555250167846679688e-02) (77, 4.86188977956771850586e-02) (78, -3.98259386420249938965e-02) (79, 9.10665541887283325195e-02) (80, 7.29306554794311523438e+00) (81, 8.67564827203750610352e-02) (82, -9.93802621960639953613e-02) (83, 7.84576535224914550781e-02) (84, -1.30086541175842285156e-01) (85, 8.77508819103240966797e-01) (86, -1.22425956651568412781e-02) (87, 2.99087576568126678467e-02) (88, 7.36694240570068359375e+00) (89, 1.31757007911801338196e-02) (90, 6.52386201545596122742e-03) (91, -5.91885158792138099670e-03) (92, 2.71961446851491928101e-02) (93, -5.19418902695178985596e-02) (94, -2.91192997246980667114e-02) (95, 2.32969298958778381348e-02) (96, 7.32409143447875976562e+00) (97, -9.27141979336738586426e-02) (98, -8.62756073474884033203e-02) (99, -8.32737982273101806641e-03) (100, -9.83250141143798828125e-03) (101, 4.60857711732387542725e-02) (102, -1.32758453488349914551e-01) (103, -1.43461935222148895264e-02) (104, 7.26221084594726562500e+00) (105, 5.92770688235759735107e-02) (106, -1.33587896823883056641e-01) (107, 3.03941704332828521729e-02) (108, -1.07332415878772735596e-01) (109, 3.47846671938896179199e-02) (110, 3.49209904670715332031e-02) (111, -3.87056730687618255615e-02) (112, 7.34798431396484375000e+00) (113, 8.62124860286712646484e-02) (114, -7.14978501200675964355e-02) (115, 4.63309772312641143799e-02) (116, 4.31538783013820648193e-02) (117, 4.18038927018642425537e-02) (118, 1.01208895444869995117e-01) (119, 5.59750683605670928955e-02) (120, 7.35787057876586914062e+00) (121, -5.76397730037569999695e-03) (122, 5.32948747277259826660e-02) (123, -3.29974107444286346436e-02) (124, -6.45019393414258956909e-03) (125, 1.26107022166252136230e-01) (126, 5.37335351109504699707e-02) (127, 3.99253517389297485352e-02) (128, 7.33576726913452148438e+00) (129, 3.05915474891662597656e-02) (130, 4.27196361124515533447e-02) (131, 9.75272953510284423828e-02) (132, 2.76261959224939346313e-02) (133, -6.52828589081764221191e-02) (134, 1.05491921305656433105e-01) (135, 1.17893002927303314209e-01) (136, 7.31951856613159179688e+00) (137, -6.16844855248928070068e-02) (138, 2.02517546713352203369e-02) (139, 7.42090493440628051758e-02) (140, 1.35892093181610107422e-01) (141, 9.28173139691352844238e-02) (142, 1.52187681198120117188e+00) (143, -1.34455189108848571777e-01) (144, 7.34512329101562500000e+00) (145, 5.05424551665782928467e-02) (146, 6.42801299691200256348e-02) (147, -7.41375535726547241211e-02) (148, -5.70041947066783905029e-02) (149, -1.22088387608528137207e-01) (150, -9.22113731503486633301e-02) (151, -6.72150179743766784668e-02) (152, 7.26951837539672851562e+00) (153, -1.70759499073028564453e-01) (154, -5.54620325565338134766e-02) (155, -2.19891797751188278198e-02) (156, -9.61353108286857604980e-02) (157, 1.12468808889389038086e-01) (158, 1.40372961759567260742e-01) (159, 5.73966763913631439209e-02) (160, 2.55757314153015613556e-03) (0, -2.60199636220932006836e-01) (1, 1.68516322970390319824e-01) (2, -5.08256292343139648438e+00) (3, 5.60881868004798889160e-02) (4, 8.06624367833137512207e-02) (5, 7.70637020468711853027e-02) (6, -7.50601291656494140625e-01) (7, 1.62476688623428344727e-01) (8, -3.20334196090698242188e-01) (9, 1.48094609379768371582e-01) (10, -5.04667758941650390625e+00) (11, 1.66508808732032775879e-01) (12, 1.64597019553184509277e-01) (13, 1.27122262492775917053e-02) (14, 8.74032005667686462402e-02) (15, -3.90860944986343383789e-01) (16, 3.44935953617095947266e-02) (17, 1.93121001124382019043e-01) (18, -3.92125874757766723633e-01) (19, -2.05742180347442626953e-01) (20, 2.85801708698272705078e-01) (21, -6.25602714717388153076e-03) (22, 2.30579391121864318848e-01) (23, 1.94016680121421813965e-01) (24, -5.08075571060180664062e+00) (25, -3.33560347557067871094e-01) (26, 9.94330123066902160645e-02) (27, -5.08925771713256835938e+00) (28, -3.40520679950714111328e-01) (29, -5.05481672286987304688e+00) (30, -3.49732905626296997070e-01) (31, -5.13321256637573242188e+00) (32, -5.14824819564819335938e+00) (33, 1.40574172139167785645e-01) (34, 1.82340875267982482910e-01) (35, 7.42275810241699218750e+00) (36, -1.23175159096717834473e-01) (37, -1.78923085331916809082e-02) (38, 1.26763194799423217773e-01) (39, 8.40667113661766052246e-02) (40, -5.05696392059326171875e+00) (41, -2.72508524358272552490e-03) (42, 1.50910869240760803223e-01) (43, 1.82674631476402282715e-01) (44, 2.86290310323238372803e-02) (45, 1.05118148028850555420e-01) (46, 6.03594481945037841797e-02) (47, 1.61120250821113586426e-01) (48, -5.07220029830932617188e+00) (49, 4.54947398975491523743e-03) (50, 1.46408705040812492371e-02) (51, 8.87372419238090515137e-02) (52, 1.36815994977951049805e-01) (53, 1.00790061056613922119e-01) (54, 8.33911150693893432617e-02) (55, 2.08994120359420776367e-01) (56, -5.13686037063598632812e+00) (57, 1.06191545724868774414e-01) (58, 4.53681461513042449951e-02) (59, -8.05133208632469177246e-02) (60, 2.09021151065826416016e-01) (61, 1.94028213620185852051e-01) (62, 4.31891763582825660706e-03) (63, 1.13261751830577850342e-01) (64, -5.06268596649169921875e+00) (65, 1.78699567914009094238e-01) (66, 3.72173301875591278076e-02) (67, 2.48575694859027862549e-02) (68, 3.24689485132694244385e-02) (69, -6.67431429028511047363e-02) (70, 7.26803019642829895020e-02) (71, 1.53983294963836669922e-01) (72, -5.03350400924682617188e+00) (73, -2.88203246891498565674e-02) (74, 4.13014665246009826660e-02) (75, 6.46163374185562133789e-02) (76, 1.90186008810997009277e-01) (77, 2.89809028618037700653e-03) (78, 4.14716377854347229004e-02) (79, 1.40630789101123809814e-02) (80, -5.04064321517944335938e+00) (81, -1.06848962604999542236e-02) (82, -1.24372653663158416748e-02) (83, -6.36764466762542724609e-02) (84, 1.44833460450172424316e-01) (85, -3.36983412504196166992e-01) (86, -1.17884553968906402588e-01) (87, -1.25087322667241096497e-02) (88, -5.16780614852905273438e+00) (89, 6.74655064940452575684e-02) (90, -1.97298731654882431030e-02) (91, -4.56407070159912109375e-02) (92, 4.55837585031986236572e-02) (93, 9.09314155578613281250e-02) (94, -1.82442814111709594727e-01) (95, -3.03178071975708007812e-01) (96, -5.09233283996582031250e+00) (97, 6.76558092236518859863e-02) (98, 3.57468845322728157043e-04) (99, 1.36124566197395324707e-01) (100, 1.10947526991367340088e-02) (101, 1.27175763249397277832e-01) (102, 1.25521987676620483398e-01) (103, -7.04260319471359252930e-02) (104, -5.03780221939086914062e+00) (105, -5.16065433621406555176e-02) (106, 1.72407571226358413696e-02) (107, 8.17357301712036132812e-02) (108, 1.19872994720935821533e-01) (109, -8.83604167029261589050e-04) (110, -4.08374220132827758789e-02) (111, 5.72373941540718078613e-02) (112, -5.07023334503173828125e+00) (113, -1.84053797274827957153e-02) (114, 1.23684793710708618164e-01) (115, -4.77512832731008529663e-04) (116, 6.96077644824981689453e-02) (117, 7.14246928691864013672e-02) (118, -2.58368402719497680664e-01) (119, 2.05347314476966857910e-02) (120, -5.11248207092285156250e+00) (121, 1.25970199704170227051e-01) (122, 6.34891241788864135742e-02) (123, 1.12194508314132690430e-01) (124, -2.18741133809089660645e-01) (125, -2.06239271163940429688e+00) (126, 4.71139587461948394775e-02) (127, 4.46371734142303466797e-02) (128, -5.02248382568359375000e+00) (129, 1.78864896297454833984e-01) (130, 2.74144373834133148193e-02) (131, 7.66614601016044616699e-02) (132, 9.03605669736862182617e-02) (133, 9.33452919125556945801e-02) (134, -1.74090671539306640625e+00) (135, -4.55230847001075744629e-03) (136, -5.10419511795043945312e+00) (137, -4.42982325330376625061e-03) (138, 5.03684394061565399170e-02) (139, -5.25669194757938385010e-02) (140, -9.50646772980690002441e-02) (141, -9.92897570133209228516e-01) (142, -6.94704473018646240234e-01) (143, 7.75499939918518066406e-02) (144, -5.09940624237060546875e+00) (145, 4.57580648362636566162e-02) (146, 9.47943106293678283691e-02) (147, 2.02808901667594909668e-02) (148, 1.20942164212465286255e-02) (149, 2.40243747830390930176e-02) (150, -1.01323269307613372803e-01) (151, 7.59851485490798950195e-02) (152, -5.19460773468017578125e+00) (153, 3.77223566174507141113e-02) (154, 9.35402810573577880859e-02) (155, -5.83599284291267395020e-02) (156, 5.48825636506080627441e-02) (157, 3.93552891910076141357e-02) (158, -2.18235850334167480469e-01) (159, 1.42722558230161666870e-02) (160, 8.60831588506698608398e-02) (0, -2.48711481690406799316e-01) (1, 1.10714972019195556641e-01) (2, -5.16920280456542968750e+00) (3, 1.60331219434738159180e-01) (4, 3.04509103298187255859e-02) (5, 9.33380424976348876953e-02) (6, -6.67637586593627929688e-01) (7, 1.46911263465881347656e-01) (8, -2.12156668305397033691e-01) (9, 1.79799869656562805176e-01) (10, -5.09974193572998046875e+00) (11, 4.80752717703580856323e-03) (12, 7.46304839849472045898e-02) (13, 1.23757243156433105469e-01) (14, 1.19547903537750244141e-01) (15, -3.33163648843765258789e-01) (16, 7.51428902149200439453e-02) (17, 1.95168167352676391602e-01) (18, -3.73401492834091186523e-01) (19, -7.16225132346153259277e-02) (20, 2.55059927701950073242e-01) (21, 1.35139018297195434570e-01) (22, 2.80999213457107543945e-01) (23, 2.05323323607444763184e-02) (24, -5.10138463973999023438e+00) (25, -4.71772700548171997070e-01) (26, 2.60423392057418823242e-01) (27, -5.01143312454223632812e+00) (28, -4.59534019231796264648e-01) (29, -5.09512138366699218750e+00) (30, -3.38196724653244018555e-01) (31, -5.04073762893676757812e+00) (32, -5.04635477066040039062e+00) (33, 4.92484755814075469971e-02) (34, 1.96325436234474182129e-01) (35, 7.29095602035522460938e+00) (36, -1.99119612574577331543e-01) (37, -3.79038527607917785645e-02) (38, -2.06045340746641159058e-02) (39, 1.54706627130508422852e-01) (40, -5.07373046875000000000e+00) (41, -1.18504010140895843506e-01) (42, 7.22948983311653137207e-02) (43, 2.37051591277122497559e-01) (44, -4.08365018665790557861e-02) (45, 5.94288408756256103516e-02) (46, 1.72052368521690368652e-01) (47, 1.72976806759834289551e-01) (48, -5.10797786712646484375e+00) (49, -8.25161579996347427368e-03) (50, 1.09875611960887908936e-01) (51, 5.46048730611801147461e-02) (52, 2.55651444196701049805e-01) (53, 1.17400206625461578369e-01) (54, 9.30411368608474731445e-02) (55, 8.85617733001708984375e-02) (56, -5.07710170745849609375e+00) (57, 4.60630618035793304443e-02) (58, 2.13997177779674530029e-02) (59, -5.11933304369449615479e-02) (60, 3.49676996469497680664e-01) (61, 1.64815291762351989746e-01) (62, -2.22552180290222167969e-01) (63, 1.28224328160285949707e-01) (64, -5.15022134780883789062e+00) (65, 4.22795452177524566650e-02) (66, 9.02157202363014221191e-02) (67, 7.48262181878089904785e-02) (68, 3.01190912723541259766e-02) (69, 8.95803421735763549805e-02) (70, 8.60439520329236984253e-03) (71, 1.09252251684665679932e-01) (72, -5.09814357757568359375e+00) (73, 1.00859263911843299866e-02) (74, 1.16535164415836334229e-01) (75, 1.30511224269866943359e-01) (76, 2.09277425892651081085e-03) (77, 5.01781934872269630432e-03) (78, 1.09973788261413574219e-01) (79, 1.36133935302495956421e-02) (80, -5.04475688934326171875e+00) (81, -1.98189001530408859253e-02) (82, 1.29861965775489807129e-01) (83, 1.53757538646459579468e-02) (84, 1.68522745370864868164e-01) (85, -3.39000463485717773438e-01) (86, -1.32423684000968933105e-01) (87, 3.83419357240200042725e-02) (88, -5.07974958419799804688e+00) (89, 7.52981603145599365234e-02) (90, 6.96106906980276107788e-03) (91, -7.19834342598915100098e-02) (92, 5.88940735906362533569e-03) (93, 1.15500271320343017578e-01) (94, -1.66355177760124206543e-01) (95, -1.73454225063323974609e-01) (96, -5.00408887863159179688e+00) (97, -3.30962985754013061523e-02) (98, 1.76722109317779541016e-01) (99, 6.63152243942022323608e-03) (100, -1.30381667986512184143e-02) (101, 3.85728701949119567871e-02) (102, -2.14347112923860549927e-02) (103, -1.38969987630844116211e-01) (104, -5.08547210693359375000e+00) (105, 7.28579536080360412598e-02) (106, 5.35364821553230285645e-02) (107, 2.96671688556671142578e-02) (108, 9.02483314275741577148e-02) (109, 1.00354067981243133545e-01) (110, -1.03523083031177520752e-01) (111, 5.64238848164677619934e-03) (112, -5.13718414306640625000e+00) (113, 8.15410837531089782715e-02) (114, 2.19355225563049316406e-02) (115, -5.39500862360000610352e-02) (116, 1.22093781828880310059e-01) (117, -6.01693429052829742432e-02) (118, -3.14893603324890136719e-01) (119, -2.72756814956665039062e-02) (120, -5.02960920333862304688e+00) (121, 1.24755151569843292236e-01) (122, 5.15640806406736373901e-03) (123, -2.53125261515378952026e-02) (124, -2.14354395866394042969e-01) (125, -8.23115050792694091797e-01) (126, -2.23496314138174057007e-02) (127, -9.12965014576911926270e-02) (128, -5.16548061370849609375e+00) (129, 6.98861479759216308594e-02) (130, 4.45488728582859039307e-02) (131, -6.75230100750923156738e-02) (132, 6.77242651581764221191e-02) (133, 1.54532283544540405273e-01) (134, -6.13827347755432128906e-01) (135, -4.97088506817817687988e-02) (136, -5.05955934524536132812e+00) (137, 9.43099856376647949219e-02) (138, 1.68378889560699462891e-01) (139, -3.68108302354812622070e-02) (140, -1.12419560551643371582e-01) (141, -8.80744040012359619141e-01) (142, -8.66099298000335693359e-01) (143, 3.30452993512153625488e-02) (144, -5.06944942474365234375e+00) (145, 9.01581346988677978516e-02) (146, -9.34696197509765625000e-03) (147, 8.62538814544677734375e-02) (148, -4.82514537870883941650e-02) (149, 1.11097179353237152100e-01) (150, -7.83379673957824707031e-02) (151, 7.58129656314849853516e-02) (152, -5.07605743408203125000e+00) (153, -1.38474116101861000061e-02) (154, -8.01605079323053359985e-03) (155, -4.06450144946575164795e-02) (156, -4.24228087067604064941e-02) (157, 5.23178875446319580078e-02) (158, -1.04276724159717559814e-01) (159, -1.73181071877479553223e-01) (160, 4.04115431010723114014e-02) (0, -2.97815114259719848633e-01) (1, 1.82168528437614440918e-01) (2, -5.01236104965209960938e+00) (3, 1.25774620100855827332e-02) (4, -1.91360265016555786133e-02) (5, -7.31267454102635383606e-03) (6, -5.71647286415100097656e-01) (7, 1.17512688040733337402e-01) (8, -3.63822102546691894531e-01) (9, 1.04136951267719268799e-01) (10, -5.04465866088867187500e+00) (11, 1.85772165656089782715e-01) (12, 1.66904971003532409668e-01) (13, 1.49687618017196655273e-01) (14, 1.28631964325904846191e-01) (15, -2.85226076841354370117e-01) (16, 4.59468178451061248779e-02) (17, 6.83749467134475708008e-02) (18, -2.62700229883193969727e-01) (19, -4.93285804986953735352e-02) (20, 1.50933384895324707031e-01) (21, 7.96414390206336975098e-02) (22, 2.14828535914421081543e-01) (23, 1.01534843444824218750e-01) (24, -5.05319690704345703125e+00) (25, -3.68645966053009033203e-01) (26, 2.54552692174911499023e-01) (27, -5.11640834808349609375e+00) (28, -4.37025576829910278320e-01) (29, -5.13277769088745117188e+00) (30, -2.88843661546707153320e-01) (31, -5.06733274459838867188e+00) (32, -5.01255702972412109375e+00) (33, 7.16655924916267395020e-02) (34, 2.04722970724105834961e-01) (35, 7.25865125656127929688e+00) (36, -1.27922827377915382385e-02) (37, 8.28459635376930236816e-02) (38, 1.14865927025675773621e-03) (39, 1.45745798945426940918e-01) (40, -5.04197931289672851562e+00) (41, -1.02530717849731445312e-01) (42, 1.86932727694511413574e-01) (43, 1.84390991926193237305e-01) (44, 6.04815892875194549561e-02) (45, 3.06675806641578674316e-02) (46, 8.98809432983398437500e-02) (47, 1.81941866874694824219e-01) (48, -5.11794185638427734375e+00) (49, 1.63496658205986022949e-01) (50, 1.08061462640762329102e-01) (51, 1.24139115214347839355e-01) (52, 2.07989498972892761230e-01) (53, 1.24188093468546867371e-02) (54, 2.31014173477888107300e-02) (55, 9.43907573819160461426e-02) (56, -5.06352710723876953125e+00) (57, -2.35785301774740219116e-02) (58, 1.00708730518817901611e-01) (59, -8.93310364335775375366e-03) (60, 2.11093366146087646484e-01) (61, 1.17015488445758819580e-01) (62, -1.37829110026359558105e-01) (63, 5.69442249834537506104e-02) (64, -5.01245927810668945312e+00) (65, 7.97365158796310424805e-02) (66, -1.09388910233974456787e-01) (67, 1.30468681454658508301e-01) (68, 5.07034070324152708054e-04) (69, -6.55624642968177795410e-03) (70, 3.04613281041383743286e-02) (71, 1.09002530574798583984e-01) (72, -5.14918994903564453125e+00) (73, -7.89365991950035095215e-02) (74, 6.57118484377861022949e-03) (75, 1.44419208168983459473e-01) (76, 1.07071377336978912354e-01) (77, 3.00181694328784942627e-02) (78, 1.25713661313056945801e-01) (79, 8.20223614573478698730e-02) (80, -5.06616687774658203125e+00) (81, -5.25344684720039367676e-02) (82, 6.14017806947231292725e-02) (83, -5.04510365426540374756e-02) (84, 1.62240900099277496338e-02) (85, -7.55337178707122802734e-01) (86, 6.25055842101573944092e-03) (87, 1.48131921887397766113e-01) (88, -5.06229305267333984375e+00) (89, 4.34226319193840026855e-02) (90, 9.70013067126274108887e-02) (91, -1.53593331575393676758e-01) (92, 1.40676438808441162109e-01) (93, 5.46386055648326873779e-02) (94, -1.64544537663459777832e-01) (95, -1.08979284763336181641e-01) (96, -5.03070354461669921875e+00) (97, 9.47882756590843200684e-02) (98, 5.15787191689014434814e-02) (99, 1.51484057307243347168e-01) (100, -1.25479280948638916016e-01) (101, 1.56024396419525146484e-01) (102, 9.31263938546180725098e-02) (103, -1.60235360264778137207e-01) (104, -5.00308609008789062500e+00) (105, -1.08734287321567535400e-01) (106, 3.88602018356323242188e-02) (107, -2.73490343242883682251e-02) (108, 8.66117849946022033691e-02) (109, 9.15351882576942443848e-02) (110, -7.99737200140953063965e-02) (111, 1.73249039798974990845e-02) (112, -5.19493484497070312500e+00) (113, 1.51894493028521537781e-02) (114, 1.16086460649967193604e-01) (115, -4.08346503973007202148e-02) (116, -4.43294718861579895020e-02) (117, -1.84628050774335861206e-02) (118, -3.99431705474853515625e-01) (119, -5.77196896076202392578e-01) (120, -5.02641248703002929688e+00) (121, -2.97840368002653121948e-02) (122, 1.65359303355216979980e-01) (123, 8.98189768195152282715e-02) (124, -6.44955217838287353516e-01) (125, -2.10975551605224609375e+00) (126, -6.39604330062866210938e-02) (127, -1.30903989076614379883e-01) (128, -5.04271411895751953125e+00) (129, 1.46537140011787414551e-01) (130, -1.60146743059158325195e-01) (131, 7.91113730520009994507e-03) (132, 1.14108622074127197266e-01) (133, 1.59239932894706726074e-01) (134, -6.88770353794097900391e-01) (135, -5.87503574788570404053e-02) (136, -5.03215694427490234375e+00) (137, -8.68265237659215927124e-03) (138, 2.27431189268827438354e-02) (139, -1.93202849477529525757e-02) (140, -2.39468812942504882812e-01) (141, -8.50990712642669677734e-01) (142, -8.29635322093963623047e-01) (143, 4.78872805833816528320e-02) (144, -5.06575965881347656250e+00) (145, 2.61991955339908599854e-02) (146, 4.55698594450950622559e-02) (147, 1.04647830128669738770e-01) (148, 1.11838370561599731445e-01) (149, 8.02143737673759460449e-02) (150, 6.63550850003957748413e-03) (151, 5.02084493637084960938e-02) (152, -5.07770156860351562500e+00) (153, 5.08776307106018066406e-02) (154, 8.10234099626541137695e-02) (155, -6.71633109450340270996e-02) (156, -2.36407481133937835693e-03) (157, -8.56636539101600646973e-02) (158, -1.54116630554199218750e-01) (159, -1.91698148846626281738e-01) (160, 2.00807601213455200195e-01) (161, 2.69041746854782104492e-01) (162, -1.14343559741973876953e+00) (163, 2.59261488914489746094e-01) (164, -1.33174669742584228516e+00) (165, -1.33747279644012451172e+00) (166, 2.94053941965103149414e-01) (167, -4.85592931509017944336e-01) (168, 2.27762430906295776367e-01) (169, 3.17434310913085937500e-01) (170, 1.91270247101783752441e-01) (171, 2.04365804791450500488e-01) 
